tree
version=v4
num_class=1
num_tree_per_iteration=1
label_index=0
max_feature_idx=29
feature_names=Time V1 V2 V3 V4 V5 V6 V7 V8 V9 V10 V11 V12 V13 V14 V15 V16 V17 V18 V19 V20 V21 V22 V23 V24 V25 V26 V27 V28 Amount
feature_infos=[1:172788] [-56.407509631328999:2.4549299912112099] [-72.715727562930297:22.057728990490901] [-48.325589362395398:4.18781059904763] [-5.6831711981699504:16.8753440335975] [-113.743306711146:34.801665876668601] [-26.1605059358433:73.301625545964598] [-43.5572415712451:120.589493945238] [-73.216718455267397:20.007208365121301] [-13.3201546920984:10.392888824678501] [-24.588262437247501:15.2456856915255] [-4.7974734647975703:12.018913181619901] [-17.7691434633638:7.8483920756446004] [-5.7918812063208396:7.1268829585937601] [-19.214325490261398:10.526766051784699] [-4.3913070678049397:8.8777415977427694] [-14.129854517493101:17.315111517627798] [-25.162799369324802:9.2535262504728504] [-9.4987459210467708:5.0410691854118399] [-7.2135274301775896:5.5919714273355803] [-54.497720494566003:39.420904248219898] [-34.8303821448146:27.202839157315399] [-10.933143697655:10.503090089945401] [-44.807735203791303:22.528411689774899] [-2.8366269187034101:4.5845491368981701] [-10.2953970749851:7.5195886787091597] [-2.60455055280817:3.5173456116238002] [-9.8952440475569201:31.612198106136301] [-15.4300839055349:33.847807818883098] [0:25691.16]
tree_sizes=3426 3428 3415 3414 3398 3428 3404 3419 3425 3422 3436 3427 3408 3438 3434 3437 3429 3408 3457 3445 3440 3441 3453 3451 3458 3455 3452 3459 3450 3451 3438 3447 3458 3467 3453 3478 3457 3474 3478 3438 3463 3459 3459 3442 3468 3453 3461 3460 3455 3470 3468 3464 3473 3456 3472 3461 3461 3463 3469 3462 3470 3458 3469 3462 3450 3454 3453 3472 3462 3469 3462 3475 3466 3476 3462 3484 3474 3476 3493 3503 3491 3473 3498 3493 3466 3481 3473 3487 3486 3475 3475 3477 3480 3464 3479 3472 3489 3475 3498 3474 3488 3487 3487 3488 3476 3504 3492 3495 3503 3491 3488 3489 3507 3494 3482 3504 3486 3492 3499 3496 3489 3480 3480 3498 3491 3505 3498 3502 3464 3468 3483 3474 3477 3492 3492 3499 3491 3509 3479 3516 3485 3498 3503 3494 3521 3496 3493 3487 3492 3495 3494 3493 3500 3503 3511 3488 3482 3485 3511 3511 3502 3494 3491 3503 3493 3520 3497 3500 3520 3493 3520 3506 3505 3509 3492 3492 3494 3497 3485 3500 3502 3488 3492 3489 3501 3498 3503 3509 3500 3502 3498 3503 3514 3516 3500 3512 3487 3516 3511 3498 3505 3517 3528 3510 3502 3505 3513 3513 3525 3514 3519 3488 3512 3526 3520 3508 3514 3504 3502 3514 3498 3513 3500 3495 3498 3501 3491 3511 3509 3508 3504 3483 3501 3507 3514 3513 3507 3520 3505 3500 3507 3511 3513 3504 3508 3516 3512 3510 3509 3517 3496 3498 3529 3520 3516 3509 3520 3514 3490 3501 3518 3524 3523 3524 3526 3513 3500 3526 3537 3521 3527 3524 3526 3524 3524 3528 3534 3529 3527 3536 3525 3515 3519 3521 3530 3533 3527 3522 3525 3531 3532 3516 3518 3536 3534 3546 3537 3542 3532 3534 3533 3540 3539 3532 3528 3527 3525 3546 3532 3533 3542 3535 3549 3534 3543 3542 3527 3546 3533 3539 3539 3546 3543 3552 3545 3543 3548 3551 3549 3551 3545 3551 3535 3546 3550 3554 3538 3552 3555 3557 3558 3537 3556 3549 3557

Tree=0
num_leaves=31
num_cat=0
split_feature=14 7 10 26 26 17 12 3 29 22 17 4 10 1 26 7 8 25 23 23 1 7 0 4 14 6 22 29 26 26
split_gain=44241.3 59633.3 2832.86 2108.82 3557.4 311.628 4132.24 245.995 162.125 97.9504 20.0809 64.8089 189.029 453.999 37.3998 69.845 29.4444 73.8348 34.4192 70.7765 76.2292 25.795 18.4185 6.65976 27.8917 82.8229 19.0667 13.1709 53.3876 135.155
threshold=-3.6185639790038597 -0.66375913815564347 -1.8861189975143249 -0.26234486555147446 -0.33546376069207245 -1.6128814526898096 -2.3724922217243898 -3.7307632304171396 0.77500000000000013 -1.1695765118692898 1.4066430720417353 2.4506244739438503 -0.35384287802857695 0.098649204711976163 -0.23703343024081247 0.44359231793902604 -0.43915714713154647 -1.3599550885974396 -0.14237745613381497 -0.16570380857153896 1.4894778491525953 1.8565085899237503 93799.000000000015 2.4506244739438503 -2.3861182692039242 0.5491870840595181 1.7775659809238953 2.5450000000000004 -0.072989890412949537 -0.13253327178385046
decision_type=2 2 2 2 2 2 2 2 2 2 2 2 2 2 2 2 2 2 2 2 2 2 2 2 2 2 2 2 2 2
left_child=1 3 -3 4 -1 6 -2 9 -4 -5 23 16 13 22 15 -14 17 -12 19 20 21 -19 -13 -7 25 -25 27 28 29 -26
right_child=5 2 8 7 -6 10 -8 -9 -10 -11 11 12 14 -15 -16 -17 -18 18 -20 -21 -22 -23 -24 24 26 -27 -28 -29 -30 -31
leaf_value=5.4875458630433034 3.1679287279185031 2.1726378188459288 0.57704138264364591 5.0973961919977961 1.7361067183754777 -0.0092752836755319295 -0.01001768350626398 4.7918244216685251 -0.010017683506263961 5.6648866226094938 0.44397466098298971 -0.010017683506263825 -0.010017683506263801 1.4087083930226418 -0.010017683506263945 0.55747274710529848 -0.0088269776090512692 -0.01001768350626395 -0.01001768350626398 0.50588270795879564 0.4628910086700404 0.27372753179951742 0.27372753179951742 -0.010017683506263792 0.026128203793836458 0.55747274710529848 0.19265747028357846 -0.0083304813935493119 -0.0041672666958353453 0.49441825481513063
leaf_weight=0.056388616561889648 0.044053606688976288 0.068723626434803009 0.051102183759211384 0.03524288535118103 0.045815750956535339 255.92678484320641 0.57445903122424979 0.045815750956535339 0.59208047389984131 0.22203017771244049 0.044053606688976177 0.065199337899684906 0.056388616561889648 0.03524288535118103 0.5480268672108658 0.03524288535118103 8.398379579186436 0.3524288535118103 0.85287782549857993 0.038767173886299022 0.042291462421417236 0.03524288535118103 0.03524288535118103 0.095155790448189559 0.27665665000677109 0.03524288535118103 0.04934003949165422 11.853944487869738 1.7092799395322753 0.079296492040157651
leaf_count=32 25 39 29 20 26 145236 326 26 336 126 25 37 32 20 311 20 4766 200 484 22 24 20 20 54 157 20 28 6727 970 45
internal_value=0 1.98604 0.242825 5.04805 3.80587 -0.00788385 0.216332 5.46692 0.0366254 5.58715 -0.00837814 0.00516347 0.0931624 0.432183 0.021249 0.208248 -0.00182435 0.0412395 0.027815 0.0966535 0.0597557 0.0157773 0.089542 -0.00890668 -0.00221567 0.143358 -0.00357462 -0.00427022 0.0190347 0.13045
internal_weight=0 1.1172 0.711906 0.405293 0.102204 281.184 0.618513 0.303089 0.643183 0.257273 280.565 10.5394 0.775343 0.135685 0.639658 0.0916315 9.76404 1.36566 1.32161 0.46873 0.429963 0.387672 0.100442 270.026 14.0989 0.130399 13.9685 13.9192 2.06523 0.355953
internal_count=160203 634 404 230 58 159569 351 172 365 146 159218 5981 440 77 363 52 5541 775 750 266 244 220 57 153237 8001 74 7927 7899 1172 202
is_linear=0
shrinkage=0.01


Tree=1
num_leaves=31
num_cat=0
split_feature=14 16 13 1 11 29 7 3 28 24 4 22 26 1 17 4 6 28 8 26 22 23 23 3 12 21 17 3 26 27
split_gain=796.588 69.391 145.842 80.8254 115.791 41.0202 46.1397 72.8674 84.4569 136.191 26.4847 58.9771 26.7235 64.5981 18.695 46.7575 99.3363 222.799 34.3756 63.9241 115.497 27.4955 58.929 36.5552 25.4285 16.5521 6.94243 11.8525 8.80742 7.8951
threshold=-2.6319626232567948 1.6805619968702703 -1.2856799209366498 0.21689712042181103 1.6725969419043452 696.3850000000001 0.39137599183704758 -1.5938304383638149 0.13715019636084852 0.025657895179501403 4.7925433289000958 1.7775659809238953 -0.098701466661892293 -6.1371470638891692 1.4066430720417353 2.4506244739438503 -0.15368741344833148 0.048905403735526355 -0.43915714713154647 -0.50619417239914888 -0.17088631938329046 -0.14237745613381497 -0.18838240319086799 -2.8886920445463344 0.97057345970817666 -0.11933720338248298 0.82428024318279414 -3.1977504663330847 -0.26234486555147446 -0.54856217794038631
decision_type=2 2 2 2 2 2 2 2 2 2 2 2 2 2 2 2 2 2 2 2 2 2 2 2 2 2 2 2 2 2
left_child=1 5 -3 -4 25 6 7 26 9 -9 14 12 13 -12 -2 18 17 -17 19 20 -16 22 23 -21 -18 -5 27 28 29 -1
right_child=10 2 3 4 -6 -7 -8 8 -10 -11 11 -13 -14 -15 15 16 24 -19 -20 21 -22 -23 -24 -25 -26 -27 -28 -29 -30 -31
leaf_value=0.033399846556035451 -0.0089333790000918501 0.99330883550890525 -0.01008998639913182 -0.010055704042377114 0.52384336324364511 0.1091202681356689 -0.010028575372970024 0.41763274950409895 0.047383844174569201 0.097465120118334747 -0.010017583221906528 0.26343123668035784 -0.010041514661385751 0.47225654785639043 0.67814101657559211 -0.010024981170419986 -0.010026102883278773 0.75206556116089873 -0.0086004391874534743 0.23303771265425499 -0.010021689159665795 -0.010017706928335377 0.43680075071031049 -0.010018051985959066 0.26751031137880021 0.23049360744463801 0.014338651274446442 0.05234728376068698 0.030775467770050705 0.058398265127808324
leaf_weight=2.7268886566162109 267.36149194627069 0.019931582035496831 0.23554212274029751 0.091683307662606239 0.093644072534516454 0.73864697688259084 2.2618912953184909 0.18697267433162679 1.1565553178079424 0.45905976300127804 0.084095584810711443 0.10959549155086279 0.65273169009014864 0.041469316463917494 0.043594257673248649 0.092375423992052674 0.39393630577251393 0.065607381286099553 7.0567184407263968 0.082283633528277278 0.05535899894312013 0.69062868738546868 0.044759936165064462 0.24951959191821516 0.036032328847795725 0.041577256051823497 1.7924695501569647 3.3865989410551256 30.933564199600369 2.3539840169250956
leaf_count=13 152894 3 65 31 19 21 1178 25 38 34 48 18 351 20 20 44 196 22 4040 36 27 393 17 140 20 20 256 29 150 35
internal_value=0 0.036451 0.155765 0.119667 0.254363 0.0351998 0.0339933 0.0363092 0.0985418 0.190127 -0.00828576 0.0462423 0.0156589 0.149259 -0.00846106 0.00587118 0.0920218 0.306457 -0.000288764 0.0500079 0.293151 0.0274629 0.0962034 0.0502572 0.0132321 0.0649956 0.0335859 0.0344615 0.0327797 0.0449817
internal_weight=0 46.479 0.482378 0.462447 0.226905 45.9966 45.258 42.9961 1.80259 0.646032 277.06 0.887892 0.778297 0.125565 276.172 8.81081 0.587951 0.157983 8.22286 1.16615 0.0989533 1.06719 0.376563 0.331803 0.429969 0.133261 41.1935 39.401 36.0144 5.08087
internal_count=160203 1917 138 135 70 1779 1758 580 97 59 158286 437 419 68 157849 4955 282 66 4673 633 47 586 193 176 216 51 483 227 198 48
is_linear=0
shrinkage=0.01


Tree=2
num_leaves=31
num_cat=0
split_feature=14 16 21 26 29 7 3 28 29 4 16 0 1 17 4 8 10 8 8 12 14 6 11 0 12 17 3 26 27 10
split_gain=771.123 63.456 62.2441 37.7721 35.803 44.5042 59.8527 57.31 88.1816 25.0063 44.1372 30.1421 25.8962 18.4242 39.7657 71.7703 116.201 31.7617 44.8983 25.4128 41.9594 87.3839 129.238 21.9414 8.65414 6.90599 10.5375 8.13773 7.21901 7.1819
threshold=-2.6319626232567948 1.8333753628017853 -0.10987872788545398 -0.19436653822876396 696.3850000000001 0.39137599183704758 -1.5938304383638149 0.13715019636084852 8.9950000000000028 4.7925433289000958 -0.6615137891099433 100847.00000000001 0.42368578322192257 1.4066430720417353 2.4506244739438503 0.13994363011063451 -0.12640948590535447 -0.43915714713154647 -0.46377763008593048 -0.31658934449968745 -0.24354481389041197 -0.64263900786558037 0.64534595375509962 149405.50000000003 -3.5322650778719393 0.82428024318279414 -3.1977504663330847 -0.26234486555147446 -0.54856217794038631 -2.2156348500290246
decision_type=2 2 2 2 2 2 2 2 2 2 2 2 2 2 2 2 2 2 2 2 2 2 2 2 2 2 2 2 2 2
left_child=1 4 3 -3 5 6 25 8 -8 13 11 -11 -12 -2 17 16 -16 18 19 20 21 23 -23 -15 -5 26 27 28 -1 -27
right_child=9 2 -4 24 -6 -7 7 -9 -10 10 12 -13 -14 14 15 -17 -18 -19 -20 -21 -22 22 -24 -25 -26 29 -28 -29 -30 -31
leaf_value=0.032631203454112856 -0.0089235209368827666 0.28736714093161386 0.31414851642082392 0.11094036311305444 0.10098655878514402 -0.010029026028547683 0.33542454649382719 0.045574514188859938 0.092802147304582083 -0.010237157900096414 -0.010018721458326916 0.23905648204391153 0.26313339494807725 -0.010024576195995026 0.39333759136222762 -0.010027277533125559 -0.010021143117196016 -0.0085880915976914857 0.30554689809029933 -0.010020527526788801 -0.01002150208026323 0.73965300662303468 -0.01002396727375706 0.2624238709895908 -0.010075099862335979 0.029423266920142105 0.050247670189408435 0.03014067032122042 0.056293822801553609 -0.011321894698050268
leaf_weight=2.7630250453948975 264.99216814222746 0.067231629742309451 0.15416454174555738 0.082568921614438295 0.78972107369918276 2.2764016380533567 0.20251517917495121 1.189533303142525 0.57550758996512741 0.069525901577435434 0.66945659252814849 0.16038522007875144 0.036605616798624396 0.15184830862563103 0.14872662723064423 0.38021404924802482 0.13740664941724468 6.9964975258335445 0.063376266974954798 0.64397951331920911 0.25426793715450902 0.053356005577370524 0.040412514819763601 0.036704513127915561 0.20785040478222072 1.1269853573758131 3.4922777100000522 31.267498669680208 2.4172346154227844 0.70210999890696379
leaf_count=13 152894 22 29 7 22 1191 25 40 38 19 368 35 15 72 32 180 70 4040 28 341 132 23 19 18 52 7 29 150 35 257
internal_value=0 0.0354359 0.146179 0.0737766 0.0342249 0.033079 0.0353227 0.089222 0.155955 -0.0082717 0.0433286 0.163669 0.00414278 -0.00844803 0.00569866 0.0800038 0.199637 -0.000309879 0.0462505 0.0323307 0.0831579 0.167078 0.416556 0.0430114 0.0243307 0.0327838 0.0336539 0.032064 0.0436728 0.013783
internal_weight=0 47.3146 0.511815 0.357651 46.8028 46.0131 43.7367 1.96756 0.778023 274.835 0.935973 0.229911 0.706062 273.899 8.90679 0.666347 0.286133 8.24044 1.24395 1.18057 0.536589 0.282321 0.0937685 0.188553 0.290419 41.7691 39.94 36.4478 5.18026 1.8291
internal_count=160203 1917 110 81 1807 1785 594 103 63 158286 437 54 383 157849 4955 282 102 4673 633 605 264 132 42 90 59 491 227 198 48 264
is_linear=0
shrinkage=0.01


Tree=3
num_leaves=31
num_cat=0
split_feature=14 16 11 29 7 3 28 3 4 16 1 2 2 17 4 18 2 8 26 10 23 23 11 26 24 17 3 26 10 27
split_gain=747.668 48.5527 45.7714 31.6619 42.4165 50.5439 41.7487 55.0092 23.7843 35.1631 23.9861 23.1009 19.6842 18.1819 35.1567 54.0335 106.002 29.7329 81.6553 27.4494 27.3153 64.216 36.613 89.599 11.3243 6.52307 9.40205 7.5466 6.96162 6.63557
threshold=-2.6319626232567948 1.8333753628017853 1.6725969419043452 696.3850000000001 0.39137599183704758 -1.5938304383638149 0.13715019636084852 -1.0125162410296797 4.7925433289000958 -0.6615137891099433 0.51114769998258669 -0.96176597689633592 1.3888534003329152 1.4066430720417353 2.4506244739438503 1.1291489917889901 1.5485911637794003 -0.34951220567750696 -0.58368907920446034 -0.53758523321902796 -0.14237745613381497 -0.15678019678009347 -0.18024376530726746 -0.13727654417661247 -0.17338428987730095 0.82428024318279414 -3.1977504663330847 -0.26234486555147446 -2.2156348500290246 -0.54856217794038631
decision_type=2 2 2 2 2 2 2 2 2 2 2 2 2 2 2 2 2 2 2 2 2 2 2 2 2 2 2 2 2 2
left_child=1 3 24 4 5 25 7 -7 13 11 -11 -10 -9 -2 17 19 -17 18 -15 -16 21 22 23 -20 -3 26 27 29 -27 -1
right_child=8 2 -4 -5 -6 6 -8 12 9 10 -12 -13 -14 14 15 16 -18 -19 20 -21 -22 -23 -24 -25 -26 28 -28 -29 -30 -31
leaf_value=0.031904636735245566 -0.0089135878699361185 -0.010082027448215077 0.20358562253997051 0.0943672489048272 -0.010028739288241047 0.23888050645593428 0.044059342412072974 0.020976146832772311 0.30504900642442284 -0.01001865979640558 0.24396743161419351 0.086804660438058887 0.13835669473282183 0.33571667155217888 0.16267568999532056 0.49551162256069736 -0.010043788966104177 -0.01001722993519028 0.46619410822747581 -0.010029745321936897 -0.010018586611064648 0.44157551891511226 -0.010024595656229752 -0.010026269869085778 0.14049314438895436 0.028841163820954276 0.048330747805228856 0.029537248386636024 -0.011313073468974189 0.054378605793431949
leaf_weight=2.7975109815597534 262.6463510026224 0.20124689757358283 0.32737083220854402 0.83641500538214941 2.2538152118213466 0.32089533493854117 1.2179889125982297 0.30799592449329727 0.06347699137404561 0.67092947033233841 0.039364226628094912 0.20555929280817509 0.26646658172830939 0.08676374761853356 0.11575133714359254 0.079105182783678174 0.087183948373422027 6.5539722109679106 0.062994620529934764 0.44903112959582436 1.0356372668175016 0.044282781658694037 0.37154651957098395 0.10596763016656041 0.066434340202248587 1.1381767860148082 3.5939541403204194 31.585573033429682 0.69566316821146834 2.4770354125648728
leaf_count=13 152894 49 36 22 1191 16 40 36 28 371 12 26 11 25 27 16 36 3817 23 203 577 8 175 48 25 7 29 150 257 35
internal_value=0 0.0345104 0.124279 0.0333856 0.0322923 0.0344406 0.082167 0.134006 -0.00825753 0.040935 0.00405716 0.138298 0.0754236 -0.00843488 0.00554731 0.072015 0.230453 -0.000334745 0.0368367 0.025366 0.0208335 0.0754711 0.0454769 0.167524 0.0272884 0.0320554 0.0328916 0.0313863 0.0136087 0.0424589
internal_weight=0 48.0865 0.595052 47.4915 46.6551 44.4013 2.11335 0.895358 272.618 0.97933 0.710294 0.269036 0.574463 271.639 8.99224 0.731072 0.166289 8.26116 1.70719 0.564782 1.62043 0.584792 0.540509 0.168962 0.267681 42.2879 40.4541 36.8601 1.83384 5.27455
internal_count=160203 1917 110 1807 1785 594 103 63 158286 437 383 54 47 157849 4955 282 52 4673 856 230 831 254 246 71 74 491 227 198 264 48
is_linear=0
shrinkage=0.01


Tree=4
num_leaves=31
num_cat=0
split_feature=14 16 1 1 29 7 3 28 20 24 4 22 26 6 17 4 19 25 8 26 23 23 3 11 1 13 17 3 26 10
split_gain=725.662 38.433 37.7346 42.5171 28.2426 40.4941 43.2283 31.6152 40.815 23.0042 22.6773 31.769 19.4705 36.0677 17.9573 31.3993 51.8881 52.591 28.059 53.6152 23.9809 41.5837 29.6146 66.1269 22.2308 11.9694 6.17171 8.41677 7.02256 6.75253
threshold=-2.6319626232567948 1.8333753628017853 0.21689712042181103 1.8716667245772203 696.3850000000001 0.39137599183704758 -1.5938304383638149 0.13715019636084852 0.23592698482723803 -0.12301280966270149 4.7925433289000958 1.7775659809238953 -0.098701466661892293 -0.50435237771990493 1.4066430720417353 2.4506244739438503 1.9433780009769401 0.34536542193972802 -0.34951220567750696 -0.58368907920446034 -0.14237745613381497 -0.15378490685612947 -2.5159609298243297 -0.13719651983997197 1.1233346576872754 -0.81943596264706098 0.82428024318279414 -3.1977504663330847 -0.26234486555147446 -2.2156348500290246
decision_type=2 2 2 2 2 2 2 2 2 2 2 2 2 2 2 2 2 2 2 2 2 2 2 2 2 2 2 2 2 2
left_child=1 4 25 -4 5 6 26 8 9 -8 14 12 13 -12 -2 18 17 -17 19 -16 21 22 23 -21 -19 -3 27 28 -1 -28
right_child=10 2 3 -5 -6 -7 7 -9 -10 -11 11 -13 -14 -15 15 16 -18 24 -20 20 -22 -23 -24 -25 -26 -27 29 -29 -30 -31
leaf_value=0.041330000799066208 -0.008903579981658697 0.14387490912252979 0.26607728947431475 0.051791982793176462 0.088709386058022713 -0.01002845469766033 0.27126358496332997 0.042655093513332139 0.050861933753644409 0.13163189194926278 0.29124413046155101 0.16185974367869052 -0.010044967795380137 -0.01002373079700781 0.23806962501284923 -0.010032081830897615 0.36809824681696773 0.078573047209791538 -0.010017058347835671 0.36089533390463258 -0.010018401507556139 0.31526906322752418 -0.010024649806060208 -0.010030518456050163 0.28196870011820374 -0.010116185836261749 0.028286511129126616 0.04657345127594404 0.028962931780333726 -0.011304259292186035
leaf_weight=5.3639269061386576 260.32379344094079 0.064706266159191728 0.21719281515106559 0.1614013162907213 0.88062902889214356 2.2314523468958205 0.17755028756801039 1.2453639588784424 0.47608403163030744 0.35171696241013639 0.066374570713378489 0.1739769778214395 0.68323908746242412 0.09902510023675859 0.1208998467773198 0.52580475399736393 0.052885033888742328 0.1127872949000448 6.4888698697322953 0.080871677026152611 1.0253513685893256 0.061467063147574552 0.38029718364123255 0.1184680808801204 0.10263822018168867 0.22950543626211484 1.1488349924329648 3.691757035907357 31.888224918860942 0.68927555531263429
leaf_count=48 152894 2 37 24 22 1191 9 40 23 31 22 18 351 46 25 227 11 37 3817 18 577 7 185 44 7 47 7 29 150 257
internal_value=0 0.0336474 0.108705 0.174724 0.0325985 0.031553 0.0336135 0.0763294 0.118043 0.178473 -0.00824323 0.0387588 0.0135222 0.110874 -0.00842165 0.00540992 0.0654751 0.0438837 -0.000353417 0.0347298 0.0199776 0.0679519 0.0417254 0.140453 0.17548 0.0237512 0.0313662 0.032171 0.0307437 0.0134403
internal_weight=0 48.8176 0.672806 0.378594 48.1448 47.2642 45.0327 2.25072 1.00535 0.529267 270.417 1.02262 0.848639 0.1654 269.394 9.07034 0.794115 0.74123 8.27623 1.78736 1.66646 0.641104 0.579637 0.19934 0.215426 0.294212 42.782 40.9439 37.2522 1.83811
internal_count=160203 1917 110 61 1807 1785 594 103 63 40 158286 437 419 68 157849 4955 282 271 4673 856 831 254 247 62 44 49 491 227 198 264
is_linear=0
shrinkage=0.01


Tree=5
num_leaves=31
num_cat=0
split_feature=14 16 29 21 21 29 7 3 19 4 22 17 4 23 25 8 26 23 23 3 11 0 1 19 17 3 26 10 27 4
split_gain=704.79 30.7325 31.2194 32.3812 25.5597 25.3838 38.7101 37.0671 33.4283 21.6929 25.7049 17.7597 28.4595 40.5755 45.9768 26.6453 39.1056 21.4288 26.5127 23.892 42.7817 17.2814 16.7126 9.88032 5.84922 7.55661 6.56626 6.55383 5.98893 4.96902
threshold=-2.6319626232567948 1.8333753628017853 17.995000000000001 -0.10987872788545398 -0.30005093960261192 696.3850000000001 0.39137599183704758 -1.5938304383638149 -0.69688071987157729 4.7925433289000958 1.7775659809238953 1.4066430720417353 2.4506244739438503 0.97693465625845166 0.34536542193972802 -0.34951220567750696 -0.58368907920446034 -0.14237745613381497 -0.15378490685612947 -2.5159609298243297 -0.16956035427403196 165618.50000000003 0.51114769998258669 0.50153705355587008 0.82428024318279414 -3.1977504663330847 -0.26234486555147446 -2.2156348500290246 -0.54856217794038631 1.3942584152401603
decision_type=2 2 2 2 2 2 2 2 2 2 2 2 2 2 2 2 2 2 2 2 2 2 2 2 2 2 2 2 2 2
left_child=1 5 3 4 -3 6 7 24 -9 11 21 29 15 14 -14 16 -13 18 19 20 -18 22 -11 -10 25 26 28 -26 -1 -2
right_child=9 2 -4 -5 -6 -7 -8 8 23 10 -12 12 13 -15 -16 -17 17 -19 -20 -21 -22 -23 -24 -25 27 -27 -28 -29 -30 -31
leaf_value=0.030357793556371436 -0.0093679328920150459 0.16182256757306099 -0.010061420163809769 0.23560991487646527 -0.010117305247731953 0.08380987394250386 -0.010028173579342299 0.17654401038430009 0.032261816171319291 -0.010042537830299941 0.13876088402843895 0.18620745831690091 -0.010033717570159289 0.30255892811537693 0.15578416930403557 -0.010016887810806167 0.26150558712197647 -0.010018218057097111 0.22913197885519856 -0.010024404274387355 -0.010031007902775359 0.19683785774461812 0.16943562857126093 0.076075772993550214 0.027757396530553737 0.044956466213184249 0.028415658112335453 -0.011295452780011908 0.051359770508498742 -0.0048343740922693456
leaf_weight=2.8716641515493393 231.02209096425213 0.17432992404792458 0.20171914389356971 0.20317984558641811 0.17152261163573712 0.92256765719503064 2.2093106446554875 0.26742748171091113 0.8795938270632172 0.75885199778713175 0.20075576729141176 0.15283064590767015 0.54684341466054398 0.063964402535930276 0.24086855771020055 6.4244131796294797 0.11045768414624035 1.0151674358639855 0.083583923522382864 0.37652233941480517 0.12223050172906369 0.048337857006117702 0.055690150242298841 1.240653699962422 1.1589748938567916 3.7858085168991229 32.175882712937891 0.68294653110206205 2.5755471484735599 27.002205203752965
leaf_count=13 137003 20 55 11 24 22 1191 23 53 386 18 25 230 13 39 3817 17 577 7 185 45 21 12 27 7 29 150 257 35 15891
internal_value=0 0.0328317 0.0963258 0.135413 0.0765505 0.0318543 0.0308525 0.0328315 0.071188 -0.00822888 0.0368424 -0.00840832 0.00529301 0.0603394 0.0406705 -0.000365476 0.0329562 0.019243 0.0621202 0.0392061 0.118868 0.0131302 0.00222836 0.0578994 0.0307141 0.0314897 0.0301346 0.0132774 0.0402879 -0.0088935
internal_weight=0 49.5211 0.750752 0.549032 0.345853 48.7704 47.8478 45.6385 2.38768 268.225 1.06364 267.161 9.13688 0.851676 0.787712 8.28521 1.86079 1.70796 0.692794 0.609211 0.232688 0.86288 0.814542 2.12025 43.2508 41.4089 37.6231 1.84192 5.44721 258.024
internal_count=160203 1917 110 55 44 1807 1785 594 103 158286 437 157849 4955 282 269 4673 856 831 254 247 62 419 398 80 491 227 198 264 48 152894
is_linear=0
shrinkage=0.01


Tree=6
num_leaves=31
num_cat=0
split_feature=14 16 29 10 3 21 29 4 16 1 21 17 4 8 28 8 26 9 2 7 9 21 24 24 2 13 0 1 14 29
split_gain=685.179 25.0918 24.7359 23.7972 25.4666 20.9856 21.8588 20.8272 23.6799 24.3839 19.81 17.58 26.0283 32.3196 37.8476 25.4167 30.1993 60.665 21.0247 18.8768 17.2789 19.1407 13.5835 12.7476 12.3206 12.0819 9.99762 7.75944 14.0651 7.33288
threshold=-2.6319626232567948 1.8333753628017853 17.995000000000001 -1.7701216471328598 -3.1977504663330847 -0.10987872788545398 0.99500000000000011 4.7925433289000958 -0.6615137891099433 0.80552964716413566 1.6938311433288453 1.4066430720417353 2.4506244739438503 0.13994363011063451 0.048905403735526355 -0.34951220567750696 -0.50619417239914888 0.98452447067600868 1.0156217487188102 2.1741075885423657 -2.0652907494437298 -0.27507159082828342 0.78364737546376861 -1.3776879415604748 -0.96176597689633592 -1.9559080748671847 91360.000000000015 2.1223189971832856 -1.4282668102204299 99.555000000000021
decision_type=2 2 2 2 2 2 2 2 2 2 2 2 2 2 2 2 2 2 2 2 2 2 2 2 2 2 2 2 2 2
left_child=1 3 5 4 29 6 -3 11 24 -10 22 -2 15 14 -14 16 17 -13 -16 23 -6 -22 -5 -18 -9 -25 -23 -27 -29 -1
right_child=7 2 -4 10 20 -7 -8 8 9 -11 -12 12 13 -15 18 -17 19 -19 -20 -21 21 26 -24 25 -26 27 -28 28 -30 -31
leaf_value=0.027215047345015168 -0.0088833401023779152 -0.010121163726919423 -0.010060811686794142 -0.0044630259761944029 0.097706842218269876 0.18845517659807778 0.14316731005238509 0.19979946485901412 -0.01002019189821288 0.24736525450842958 0.080737307923609322 -0.01007214788803153 -0.010041480495656861 -0.010032207724327297 0.26195283037022399 -0.010016719822704072 0.1479554655565726 0.27556959993785068 0.10074676039047313 0.22018853775815742 0.10389059887795535 0.048526980075452426 0.13962922894597726 0.13021050304682416 0.0667541429671311 -0.010026280717817686 0.016539056503164579 -0.010031367160705807 0.21516062608650022 0.036455392983011391
leaf_weight=27.099754950380884 255.74779682187364 0.17750692088156939 0.19972402160055935 3.1283559100702405 0.72894674539566029 0.25118809239938755 0.19546474108938128 0.095308109419420362 0.70999855687841662 0.038819851819425821 0.322918006684631 0.15854496392421413 0.172033183975146 0.40724277310073376 0.1469412783626467 6.3605954753002125 0.063265343895181902 0.14001453365199268 0.18001824209932238 0.04342603706754733 0.51457550283521403 3.5783132137730709 0.066820509266108163 0.071270529995672072 0.2580824171891436 1.3345373243791971 1.3440695651806889 0.073910453589633107 0.044395100325346104 12.572411794215439
leaf_count=144 152894 20 55 1383 9 11 24 28 379 4 17 32 61 180 15 3817 23 29 26 13 11 66 32 27 26 685 76 35 12 69
internal_value=0 0.0320718 0.0868034 0.0311582 0.0330819 0.117799 0.0702133 -0.00821441 0.0351648 0.00332305 0.00609412 -0.00839488 0.00518935 0.0560725 0.110023 -0.000373065 0.0314195 0.123884 0.173196 0.0144915 0.0519886 0.0458591 -0.00144963 0.00886419 0.102636 0.00309057 0.0397926 -0.00314541 0.0744737 0.0301434
internal_weight=0 50.18 0.823884 49.3562 45.8381 0.62416 0.372972 266.046 1.10221 0.748818 3.51809 264.944 9.1962 0.906235 0.498993 8.28996 1.92936 0.298559 0.32696 1.6308 6.16591 5.43696 3.19518 1.58738 0.353391 1.52411 4.92238 1.45284 0.118306 39.6722
internal_count=160203 1917 110 1807 375 55 44 158286 437 383 1432 157849 4955 282 102 4673 856 61 41 795 162 153 1415 782 54 759 142 732 47 213
is_linear=0
shrinkage=0.01


Tree=7
num_leaves=31
num_cat=0
split_feature=14 16 10 3 1 4 26 11 21 17 4 10 11 8 26 23 15 4 23 28 23 28 25 29 4 22 29 4 7 13
split_gain=666.545 20.7968 22.8127 22.6578 20.6543 20.0134 20.8269 19.6237 18.3435 17.403 23.9339 27.4851 31.6974 24.2824 25.7951 18.4732 18.5252 30.1059 31.8945 16.6218 16.0791 17.6309 16.596 13.7848 12.6863 10.4104 8.29006 8.00576 7.32105 7.12052
threshold=-2.6319626232567948 1.8333753628017853 -1.7701216471328598 -3.1977504663330847 0.21689712042181103 4.7925433289000958 -0.098701466661892293 1.6725969419043452 1.6938311433288453 1.4066430720417353 2.4506244739438503 -0.12640948590535447 1.0286412101933502 -0.34951220567750696 -0.58368907920446034 -0.14237745613381497 -0.047612364853166993 0.84991572037247021 -0.25166941631513395 0.62587301595041456 -0.29901011157276142 0.29231747559289256 0.036442863324957005 286.94500000000005 4.7925433289000958 -1.3028918015153399 5.995000000000001 2.0248634807656654 -2.3207420690270193 -1.0672105280572197
decision_type=2 2 2 2 2 2 2 2 2 2 2 2 2 2 2 2 2 2 2 2 2 2 2 2 2 2 2 2 2 2
left_child=1 2 3 -1 29 9 25 -6 24 -2 13 12 26 14 -11 16 -16 18 23 -8 27 22 -22 -18 28 -7 -12 -5 -4 -3
right_child=5 4 8 20 7 6 19 -9 -10 10 11 -13 -14 -15 15 -17 17 -19 -20 -21 21 -23 -24 -25 -26 -27 -28 -29 -30 -31
leaf_value=0.029576437472113137 -0.0088731047439769058 0.090531993261981414 0.035276656011329711 0.011137477367417445 0.039218536028173746 -0.010024906428391647 -0.010048962816157088 0.1631154831482006 0.075766965135427147 0.13629485402183081 0.1080220667883364 -0.010023308197092266 0.17647627937165652 -0.010016553117273255 -0.01004981084482778 -0.010018570889975383 -0.010039159799612727 -0.010031349807986732 0.25669249859845655 0.16935618943564293 0.057726155740013503 0.03214994529133073 0.10916604135129002 0.19103097658587107 0.13068192244561908 0.11970967264665372 -0.010060080006867382 0.048111371244413101 -0.010349539976994273 -0.010131656622236895
leaf_weight=40.026442213566042 253.49368290626444 0.098257176578044891 0.40394613414537062 1.2061650673858824 0.20285337488166988 0.077474452322348952 0.70157412765547522 0.34569151932373643 0.34056692919693876 0.20488450140692283 0.08449492126237601 0.40663845720700997 0.26753055187873542 6.2974105357425261 0.28007511189207435 1.0221634859917674 0.10852633113972843 0.1821226931642741 0.14986996527295549 0.055746119003742933 1.696959370048716 1.3224835189757866 0.99492067401297379 0.049715242115780711 0.071059265290386864 0.30673701618798077 0.200626534759067 1.1382631286978719 2.7178612079005702 0.24669586925301601
leaf_count=213 152894 1 5 80 41 36 340 20 17 25 11 199 20 3817 101 577 43 76 20 27 26 12 37 14 22 34 52 7 1388 48
internal_value=0 0.0313522 0.0304963 0.0323621 0.0791711 -0.00819986 0.0335808 0.117298 0.00600298 -0.00838138 0.00508838 0.0523782 0.0982929 -0.000380694 0.0299999 0.0178501 0.0548306 0.0918973 0.152147 0.003157 0.0498971 0.0620493 0.0767384 0.0531317 -0.00143839 0.0935493 0.0249332 0.029089 -0.00444574 0.0185416
internal_weight=0 50.8122 49.9187 46.3852 0.893498 263.889 1.14153 0.548545 3.53343 262.748 9.25406 0.95929 0.552652 8.29477 1.99736 1.79247 0.770309 0.490234 0.308112 0.75732 6.35879 4.01436 2.69188 0.158242 3.19287 0.384211 0.285121 2.34443 3.12181 0.344953
internal_count=160203 1917 1807 375 110 158286 437 61 1432 157849 4955 282 83 4673 856 831 254 153 77 367 162 75 63 57 1415 70 63 87 1393 49
is_linear=0
shrinkage=0.01


Tree=8
num_leaves=31
num_cat=0
split_feature=14 4 10 2 6 23 16 10 6 7 7 16 4 21 1 1 28 16 4 7 5 27 29 4 7 1 17 19 14 6
split_gain=648.827 19.3093 39.9439 41.1935 19.5292 20.7872 17.3817 21.8174 20.3721 24.8705 54.0724 71.0766 27.8674 17.0639 16.4332 16.7574 13.6452 43.1356 11.8199 9.42196 44.9674 103.89 11.4758 18.2974 9.28877 48.0599 152.005 17.0459 11.224 16.8725
threshold=-2.6319626232567948 2.3292150472374855 -0.35384287802857695 -0.37650886615113793 -0.057929404214880346 1.3702064447784652 1.8333753628017853 -1.7701216471328598 -1.1585306826010047 -1.3346322883194848 -0.44141338156165644 -0.86248130141661838 1.8931412611974252 1.6938311433288453 0.21689712042181103 1.8716667245772203 0.49401388346578307 -0.50917964065431986 4.408865034030641 3.033147784095735 -0.019030033162619146 -0.0020357304553702995 591.84000000000015 -0.57380196515705995 1.0695338568349702 0.037088571179507757 -0.75440906293820686 2.1654475235570856 -2.3861182692039242 0.018508026694116154
decision_type=2 2 2 2 2 2 2 2 2 2 2 2 2 2 2 2 2 2 2 2 2 2 2 2 2 2 2 2 2 2
left_child=6 19 3 -3 -5 -6 7 8 -1 -10 -11 -12 -13 18 -8 -16 24 -18 -9 -2 22 -22 23 -21 28 27 -27 -26 29 -4
right_child=1 2 16 4 5 -7 14 13 9 10 11 12 -14 -15 15 -17 17 -19 -20 20 21 -23 -24 -25 25 26 -28 -29 -30 -31
leaf_value=0.027990342663498681 -0.0090344469504736388 -0.010043349534796962 -0.010026108199561314 0.15353180610866152 -0.010129280134537516 0.12516941848792626 0.018101511463341935 -0.007336276196849947 0.036715551762676747 0.030636150498011525 0.26306881645029928 -0.010259744492694331 0.13754345904333856 0.071429757628131613 0.14356466624830036 0.034735842770237814 0.28719584600052234 -0.010019614126775078 0.061476109283764055 0.29488202511403439 -0.010016456839694168 0.51808055121560759 -0.010017813829345443 -0.01001646090098909 -0.010017329581122052 0.6972262387864554 -0.010026400872884761 0.17006117056355405 -0.0069424378834735912 0.27774250090622654
leaf_weight=35.741085293120705 244.20346768875606 0.59719128278084099 0.049250465817744948 0.36572226241696626 0.23455351381562717 0.22012582642491907 0.34962335391901334 2.9090325211873278 9.276851447299121 1.0920086309779424 0.29239256144501147 0.24207602895330749 0.26966860890388489 0.35754395287949581 0.38963055144995451 0.22216290282085538 0.067278289468958974 0.17808592051733363 0.27305080252699543 0.032797802472487092 0.10825782478787005 0.05679487599991162 1.3128481060266493 0.049220193410292157 1.0213089636526991 0.042418203665874898 0.10715239529963572 0.055417103110812493 13.009203971014356 0.034751130267977715
leaf_count=254 148363 313 22 25 65 5 49 1380 49 8 9 51 4 17 37 24 19 98 35 20 66 19 788 30 607 25 56 6 7739 20
internal_value=0 -0.00818532 0.00246544 0.0531389 0.0991309 0.0553734 0.0306711 0.0298685 0.0316747 0.0434607 0.0764613 0.138691 0.0676265 0.00592828 0.0727914 0.104045 -0.00246659 0.0714762 -0.00143157 -0.00887796 0.0156204 0.171702 -0.00284859 0.111908 -0.0037336 0.0225836 0.19055 -0.000749022 -0.00619845 0.109023
internal_weight=0 261.746 15.9825 1.41759 0.820402 0.454679 51.4151 50.4537 46.9141 11.173 1.89615 0.804137 0.511745 3.53963 0.961417 0.611793 14.5649 0.245364 3.18208 245.763 1.55992 0.165053 1.39487 0.082018 14.3195 1.2263 0.149571 1.07673 13.0932 0.0840016
internal_count=160203 158286 9000 408 95 70 1917 1807 375 121 72 64 55 1432 110 61 8592 117 1415 149286 923 85 838 50 8475 694 81 613 7781 42
is_linear=0
shrinkage=0.01


Tree=9
num_leaves=31
num_cat=0
split_feature=14 4 10 2 10 9 6 5 7 14 10 18 28 5 4 5 26 25 28 7 5 19 17 29 13 7 1 15 19 14
split_gain=631.721 19.1596 37.3124 35.5779 16.6819 16.2735 15.8617 16.2146 58.1285 62.7888 27.5416 15.5091 12.408 34.2898 11.8746 13.1222 10.7797 14.5375 23.2357 9.1935 35.4373 55.0078 14.8361 10.0658 17.9648 8.86228 35.4334 115.737 14.4202 9.88837
threshold=-2.6319626232567948 2.3292150472374855 -0.35384287802857695 -0.37650886615113793 1.0989366267675054 -0.24246453213665997 -0.99114220328515434 1.3189377784449452 -0.50189668873674187 -3.6185639790038597 0.22761199500058402 -2.0745829303962995 0.49401388346578307 4.4896141793158009 2.0248634807656654 -0.0097424129377013478 -0.25798434487271693 -0.47541663367989595 0.41990973405953552 3.033147784095735 -0.019030033162619146 0.45556610974889661 0.80494550825851763 591.84000000000015 -0.0088315611112408984 1.0695338568349702 0.037088571179507757 -1.3509572369209046 2.1654475235570856 -2.3861182692039242
decision_type=2 2 2 2 2 2 2 2 2 2 2 2 2 2 2 2 2 2 2 2 2 2 2 2 2 2 2 2 2 2
left_child=4 19 3 -3 6 -5 14 8 -8 -10 11 -11 25 -14 15 -1 17 -16 -19 -2 23 22 -22 24 -21 29 28 -28 -27 -4
right_child=1 2 12 5 -6 -7 7 -9 9 10 -12 -13 13 -15 16 -17 -18 18 -20 20 21 -23 -24 -25 -26 26 27 -29 -30 -31
leaf_value=0.025568200517839149 -0.0090254035010455917 -0.010042932170661378 0.095699409110189343 0.050857462373559308 -0.010864364827480481 0.13648019837225783 0.036461675281296867 0.0007015006433370596 0.19978669894828538 0.10233392062369397 0.21221438105852003 -0.010140401839390948 -0.010021379299266404 0.23678187376563284 0.027146443428832951 -0.010619697305665594 0.027246333930053521 0.087926947418369691 0.029471176664010178 0.27747037245808526 -0.010019661063511225 0.45726748564075809 0.20177045812140948 -0.010017636478947076 -0.010019821142361638 -0.010017156860150705 0.5328487381921938 -0.010029008641900606 0.14386605544759182 -0.0069209716535426485
leaf_weight=2.6837180566508287 242.0146375609329 0.59127356926910579 0.094585720915346339 0.48649808228947222 0.97963430511299421 0.40824323310517019 9.5011650465894473 0.91499117005150843 0.47530535853002109 0.17634049057960399 0.08996869414113462 0.40225707879289918 0.18451997672673393 0.081008440582081676 3.028637447510846 1.5990786926122407 29.44145955669228 1.37395368120633 1.3462821254506705 0.03478404541965574 0.1109266096027558 0.042799899470992386 0.047128233825787902 1.2998079109238458 0.05794400197919447 1.0111640978138901 0.055260728462599218 0.13571579940617073 0.064798240549862274 12.919507637270721
leaf_count=30 148363 313 42 64 431 31 68 307 20 2 26 144 97 20 17 666 158 29 19 20 60 21 4 788 30 607 19 62 6 7739
internal_value=0 -0.00817089 0.00241803 0.0501483 0.030011 0.0899245 0.0307956 0.0410976 0.0445698 0.111917 0.0494479 0.0241387 -0.00245788 0.0652743 0.0277786 0.0120566 0.029692 0.0422171 0.0589964 -0.00886777 0.0150739 0.139248 0.0531312 -0.00283659 0.0978232 -0.00371724 0.0215305 0.147057 -0.000749768 -0.00617513
internal_weight=0 259.641 16.0326 1.48601 52.0128 0.894741 51.0332 11.56 10.645 1.14387 0.668566 0.578598 14.5466 0.265528 39.4731 4.2828 35.1903 5.74887 2.72024 243.608 1.59339 0.200855 0.158055 1.39254 0.092728 14.281 1.26694 0.190977 1.07596 13.0141
internal_count=160203 158286 9000 408 1917 95 1486 567 260 192 172 146 8592 117 919 696 223 65 48 149286 923 85 64 838 50 8475 694 81 613 7781
is_linear=0
shrinkage=0.01


Tree=10
num_leaves=31
num_cat=0
split_feature=14 4 10 2 10 16 29 7 3 11 28 9 28 25 29 7 5 19 1 29 12 7 1 29 17 14 13 11 6 14
split_gain=615.642 19.0233 34.9196 30.989 16.0227 14.6626 15.9235 24.5086 25.5069 14.6539 12.8596 12.2585 11.3887 27.1635 10.3095 8.99243 29.2832 51.5411 13.1156 8.96758 16.281 8.50173 28.1141 64.4932 12.859 8.92457 13.5706 7.93516 6.98961 6.9788
threshold=-2.6319626232567948 2.3292150472374855 -0.35384287802857695 -0.37650886615113793 1.0989366267675054 1.8333753628017853 696.3850000000001 0.39137599183704758 -1.5938304383638149 1.6725969419043452 0.13715019636084852 -0.24246453213665997 0.49401388346578307 -0.47541663367989595 19.735000000000003 3.033147784095735 -0.019030033162619146 0.59408674490808511 -0.37040246447441194 591.84000000000015 -0.0080376858309234977 1.0695338568349702 0.037088571179507757 9.1950000000000021 1.6198799471322953 -2.3861182692039242 0.24994265562754703 1.7901351875390203 0.49193934706219955 -0.80340363735889786
decision_type=2 2 2 2 2 2 2 2 2 2 2 2 2 2 2 2 2 2 2 2 2 2 2 2 2 2 2 2 2 2
left_child=4 15 3 -3 5 6 7 8 -1 28 14 27 21 -14 -10 29 19 18 -18 20 -17 25 24 -24 -23 26 -4 -5 -7 -2
right_child=1 2 12 11 -6 9 -8 -9 10 -11 -12 -13 13 -15 -16 16 17 -19 -20 -21 -22 22 23 -25 -26 -27 -28 -29 -30 -31
leaf_value=0.028033546147195831 -0.0046346473073112428 -0.010042518159575216 -0.010027571060236344 -0.010043083855729976 -0.010859128917057721 -0.010115805979924323 0.066853678455173399 -0.010034529906155103 0.10484458686641665 0.09591761942187281 0.037312282669118089 0.11938796756653396 0.19605271679454436 -0.010027882869303015 0.050487139937913449 -0.010022113345764121 -0.010023234338536191 0.41307419468097084 0.17492661049735123 -0.010017461013162879 0.24966368212997417 -0.010017046646834749 0.33647007377281735 -0.010033986349360598 0.12832688314817381 -0.0068994250465001378 0.22180152841122738 0.075015566216107665 0.086951752372742191 -0.0096803519451389691
leaf_weight=45.095086691202596 31.566148528596386 0.58541430893819779 0.060897776973432793 0.16017371451016515 0.97035208961460639 0.2647817424731318 1.1100823583547015 1.5926486321259279 0.77769284276291661 0.65663523739203811 1.3539680272806434 0.46172256767750031 0.09700291883200407 0.18776915385387916 0.63284557079896331 0.064715704298578203 0.1327196501661092 0.047269236063584685 0.053920011734588935 1.2868970405543221 0.038508391473442205 1.0029392194701365 0.086575444554909953 0.14152139716316015 0.072011097217909881 12.83070260973181 0.043135352898389101 0.34789876197464764 0.10305598797276616 208.28137114504352
leaf_count=463 19264 313 24 59 431 46 16 836 30 29 26 31 29 88 21 30 67 15 3 788 20 607 27 54 6 7739 18 5 19 129099
internal_value=0 -0.00815621 0.00237632 0.0474112 0.0293993 0.0301565 0.0293977 0.0285569 0.0298411 0.0676107 0.059326 0.0820929 -0.00244643 0.0601701 0.0804568 -0.0088575 0.0145943 0.118112 0.0434086 -0.00282413 0.0868553 -0.00369883 0.0206474 0.121484 -0.000749364 -0.00615147 0.0860959 0.0482002 0.0170793 -0.00901629
internal_weight=0 257.549 16.0778 1.55521 52.5571 51.5868 50.5623 49.4522 47.8596 1.02447 2.76451 0.969795 14.5226 0.284772 1.41054 241.472 1.62403 0.233909 0.18664 1.39012 0.103224 14.2378 1.30305 0.228097 1.07495 12.9347 0.104033 0.508072 0.367838 239.848
internal_count=160203 158286 9000 408 1917 1486 1392 1376 540 94 77 95 8592 117 51 149286 923 85 70 838 50 8475 694 81 613 7781 42 64 65 148363
is_linear=0
shrinkage=0.01


Tree=11
num_leaves=31
num_cat=0
split_feature=14 4 10 2 10 6 5 7 11 25 24 4 5 28 16 6 23 4 25 7 5 5 1 15 7 1 15 25 19 14
split_gain=600.256 18.8924 32.824 27.3606 15.4036 13.3315 15.1225 41.3945 43.7491 33.0951 27.8936 11.0413 12.4463 10.5288 22.5999 10.0379 16.0031 9.41064 11.4193 8.80605 24.8525 35.8755 8.67444 21.2518 8.1989 23.4495 64.7136 17.4956 11.376 8.0752
threshold=-2.6319626232567948 2.3292150472374855 -0.35384287802857695 -0.37650886615113793 1.0989366267675054 -0.99114220328515434 1.3189377784449452 -0.50189668873674187 0.18956239919602605 -0.041750966567292741 -0.32427425902750845 2.0248634807656654 -0.0097424129377013478 0.49401388346578307 -0.50917964065431986 -0.057929404214880346 1.3702064447784652 4.7925433289000958 0.29858897410445306 3.033147784095735 -0.019030033162619146 0.42056174780784955 -0.76130211334747588 0.23742830457391903 1.0695338568349702 0.037088571179507757 -1.7297659981718596 0.23380654893192551 2.1654475235570856 -2.3861182692039242
decision_type=2 2 2 2 2 2 2 2 2 2 2 2 2 2 2 2 2 2 2 2 2 2 2 2 2 2 2 2 2 2
left_child=4 19 3 -3 5 11 7 -7 -9 10 -10 12 -1 24 -15 -5 -17 18 -13 -2 22 -22 -21 -24 29 28 -27 -28 -26 -4
right_child=1 2 13 15 -6 6 -8 8 9 -11 -12 17 -14 14 -16 16 -18 -19 -20 20 21 -23 23 -25 25 26 27 -29 -30 -31
leaf_value=0.024604388674196249 -0.0090071121370558921 -0.010042108854231509 0.077636158549986831 0.10754260821357148 -0.010853891328004609 0.034902858936703057 0.00034617721907047192 -0.010188909707147743 0.10554520346526576 0.082007935433986157 0.2773670826036162 0.030511303865248172 -0.010641556763475316 0.16895898771858825 -0.010022205257565904 -0.010149209515496343 0.099376185072859724 0.025377913000128264 0.054796160997805946 -0.010017694377802196 0.22251355908136775 -0.010029096149856033 -0.010018644511099184 0.29645317305407348 -0.010016928196872563 0.46317751366648507 -0.010044992052292312 0.21065368740422805 0.11356096346825441 -0.0068777980815185611
leaf_weight=2.7281186291947925 237.70214834192302 0.57961285230703641 0.11406879196874697 0.50714588398113847 0.96115820447448541 9.7334327923599613 0.94297344738151956 0.30819915013853183 0.17273281351663172 0.64495358325075336 0.20856003230437636 7.5258717507822421 1.5833905264735246 0.11165199615061283 0.19163988821674216 0.26296802342403924 0.27076913567725569 25.66607095557265 2.6070194687927142 1.2811253017280249 0.12884119094815005 0.13676617306191474 0.07380606501828868 0.032629291876219213 0.99319256190210647 0.042260311543941498 0.17328563006594766 0.045312027912586927 0.08053165627643466 12.742779084015632
leaf_count=30 148363 313 42 25 431 68 307 99 32 45 16 58 666 19 98 65 5 129 36 779 27 58 41 18 607 7 57 17 6 7739
internal_value=0 -0.00814153 0.00233884 0.0450222 0.0288146 0.0295462 0.0387883 0.0420636 0.0942938 0.125672 0.199529 0.0267786 0.0116604 -0.00243312 0.0558668 0.0756847 0.0454139 0.0285994 0.0367594 -0.00884715 0.0141528 0.102773 -0.00281091 0.0839347 -0.00367908 0.0199126 0.104956 0.0357025 -0.000748317 -0.00612797
internal_weight=0 255.471 16.1152 1.6205 53.0825 52.1213 12.0109 11.0679 1.33445 1.02625 0.381293 40.1105 4.31151 14.4947 0.303292 1.04088 0.533737 35.799 10.1329 239.355 1.65317 0.265607 1.38756 0.106435 14.1914 1.33458 0.260858 0.218598 1.07372 12.8568
internal_count=160203 158286 9000 408 1917 1486 567 260 192 93 48 919 696 8592 117 95 70 223 94 149286 923 85 838 59 8475 694 81 74 613 7781
is_linear=0
shrinkage=0.01


Tree=12
num_leaves=31
num_cat=0
split_feature=14 17 8 5 27 29 4 8 10 10 6 0 4 16 6 5 7 11 7 4 4 5 26 15 5 28 3 26 29 25
split_gain=585.534 18.7684 23.2794 24.192 32.8441 21.8971 16.9796 17.0499 14.8238 14.768 16.4996 15.0016 13.6861 17.7668 12.089 14.2422 33.4222 35.369 26.0455 14.4113 10.5757 12.1088 10.0488 13.9789 6.88526 6.73052 6.16265 5.5764 25.3897 5.4171
threshold=-2.6319626232567948 1.4066430720417353 -0.43915714713154647 0.19813337176422305 0.57370757956801166 268.06500000000005 2.641697011628485 0.13994363011063451 1.0989366267675054 0.16458008855380704 0.69392718888571869 160433.50000000003 4.7925433289000958 -0.6615137891099433 -0.99114220328515434 1.3189377784449452 -0.50189668873674187 0.18956239919602605 -0.21432631842534847 4.1511135762803102 2.0248634807656654 -0.0097424129377013478 -0.26234486555147446 -1.0000000180025095e-35 0.77080546765833013 0.37504182142070103 -3.7307632304171396 -0.60727781821600291 171.08500000000001 0.51369235545569414
decision_type=2 2 2 2 2 2 2 2 2 2 2 2 2 2 2 2 2 2 2 2 2 2 2 2 2 2 2 2 2 2
left_child=8 12 3 -3 5 9 27 24 14 11 -11 -5 -2 -14 20 16 26 -18 -19 -20 21 -1 23 -22 -8 -17 -16 28 -4 -26
right_child=1 2 6 4 -6 -7 7 -9 -10 10 -12 -13 13 -15 15 25 17 18 19 -21 22 -23 -24 -25 29 -27 -28 -29 -30 -31
leaf_value=0.024189559627242771 -0.0088221300605928338 -0.010035263509331252 -0.01002579334892747 -0.010043827311565223 0.21003825607992968 0.1399615338904478 0.094970419858616484 -0.010033833929290515 -0.010848651575456917 -0.010035322869222164 0.19037795146326533 0.15402178765955024 0.072088319009563598 -0.010021040517435451 0.027904894249011152 -0.010131044219869052 -0.010187155544114269 0.22528420443269284 0.069533699372943 0.15922679223808608 0.028332832385957941 -0.010636939279118922 0.025803114995573289 0.060718828829157218 -0.010069175794679388 0.068467811521355393 0.044162825033176166 -0.010016182721613554 0.30119283652181383 0.082772989649052581
leaf_weight=2.7470575324259663 242.79593526420649 0.70141771878115822 0.14231480145826836 0.65260753699112661 0.13619593461044122 0.19923999160528183 0.37780489574652143 0.50567148323170841 0.95205180463381012 0.069872423075139523 0.099686055677011609 0.060935353976674378 0.48124121665023267 0.5825044848024834 6.046010710299015 0.81758766027633178 0.30518480087630173 0.16972156695555896 0.74462506838608511 0.23588402732275426 3.6251770871458575 1.5683126298245067 30.339781181304716 2.1076404899358741 0.15294766309671104 0.125696842209436 3.7949390294961614 6.3078506184974676 0.03213213081471622 0.10668048728257418
leaf_count=30 152894 324 82 270 19 13 17 223 431 27 19 22 39 311 27 299 99 8 67 18 34 666 159 30 44 8 41 3960 18 4
internal_value=0 -0.00812689 0.00562872 0.0367513 0.0636828 0.0452662 -0.00220746 0.0333274 0.0282585 0.0239016 0.107791 0.0039671 -0.00866532 0.0271254 0.0289659 0.0376721 0.0407893 0.0855166 0.110909 0.0911114 0.0263275 0.0115327 0.0280974 0.0402394 0.0677255 0.000342602 0.0341744 -0.00847376 0.0472989 0.0280794
internal_weight=0 253.405 9.54536 1.91996 1.21854 1.08234 7.6254 1.1431 53.5797 0.883101 0.169558 0.713543 243.86 1.06375 52.6276 12.2396 11.2964 1.45542 1.15023 0.980509 40.388 4.31537 36.0726 5.73282 0.637433 0.943285 9.84095 6.4823 0.174447 0.259628
internal_count=160203 158286 5042 694 370 351 4348 288 1917 338 46 292 153244 350 1486 567 260 192 93 85 919 696 223 64 65 307 68 4060 100 48
is_linear=0
shrinkage=0.01


Tree=13
num_leaves=31
num_cat=0
split_feature=14 4 10 2 10 6 5 7 11 2 4 5 5 15 1 27 28 29 26 15 7 5 5 29 6 1 2 14 20 12
split_gain=571.429 18.7463 29.4171 22.3083 14.2788 10.934 13.4088 27.3408 29.3089 17.3885 10.1464 11.7856 9.7776 29.2888 95.4003 77.0533 15.5159 21.3371 9.46547 13.0322 8.64583 20.832 39.0321 7.96998 14.6902 7.85409 7.37017 7.11507 17.205 66.5717
threshold=-2.6319626232567948 2.3292150472374855 -0.35384287802857695 -0.37650886615113793 1.0989366267675054 -0.99114220328515434 1.3189377784449452 -0.50189668873674187 0.18956239919602605 1.3388560216748953 2.0248634807656654 -0.0097424129377013478 1.1220900548941153 -1.8483253139528397 0.037088571179507757 -0.032285374012157246 0.49401388346578307 30.005000000000006 -0.26234486555147446 -1.0000000180025095e-35 3.033147784095735 -0.019030033162619146 0.18756804154998702 591.84000000000015 0.65034577228511758 -0.37040246447441194 1.8566145473352103 -0.80340363735889786 -1.8090974772509447 -0.76760091022544985
decision_type=2 2 2 2 2 2 2 2 2 2 2 2 2 2 2 2 2 2 2 2 2 2 2 2 2 2 2 2 2 2
left_child=4 20 3 -3 5 10 7 -7 -9 -10 11 -1 -4 14 -14 -16 -15 -18 19 -12 27 23 -23 24 -22 -24 -5 28 29 -2
right_child=1 2 12 26 -6 6 -8 8 9 -11 18 -13 13 16 15 -17 17 -19 -20 -21 21 22 25 -25 -26 -27 -28 -29 -30 -31
leaf_value=0.023790559057383288 0.27922540359583925 -0.010041423071706981 -0.0065311446701880708 0.085956027113478814 -0.010843411813486253 0.033448993062946852 0.0003365253259258151 -0.010185416382931991 0.076362303214890639 0.15885632554618381 0.027825759692979207 -0.010632337369712194 -0.010016060628798229 -0.0057202083233031265 0.1304223069038411 0.6598770021240723 0.19002791246462131 -0.010043956715327391 0.025395501150309252 0.058841442548992547 -0.010023264269257559 0.31277098746237353 -0.01003323872152645 -0.010017086113960336 0.2238750789927246 0.11040391904512137 0.034103849360661125 -0.009670638164461497 -0.005423003656358367 -0.010018665456899891
leaf_weight=2.7651059348136151 0.10361835488583893 0.56994746904820215 11.456054816721005 0.7234380434965737 0.9430319385137399 9.9531640151981247 0.94233732752036381 0.30219948978628686 0.9153890408342702 0.35445671528577805 3.6541784353321418 1.5533763398416365 0.26004439534153823 2.3248105102684344 0.071178422542288899 0.044780627242289484 0.099853463354520389 0.11434443795587867 30.517576548270881 2.1529028090881175 0.072194978944025823 0.061953924130647375 0.15790009708143771 1.2581844365922732 0.042753040557727218 0.082405485911294818 0.44135948282200843 202.66711034136824 30.458796797669493 0.3428862164728369
leaf_count=30 20 313 7017 49 431 68 307 99 58 35 34 666 163 1303 32 17 20 40 159 30 32 18 65 788 18 2 46 129099 19035 209
internal_value=0 -0.00811215 0.00232513 0.0412238 0.0277276 0.0284125 0.0366047 0.0395701 0.0783253 0.0993892 0.0258995 0.0114085 -0.00237037 0.0139816 0.0963511 0.334885 0.0017834 0.0832243 0.0276223 0.0393244 -0.00882672 0.0138089 0.0889667 -0.00273508 0.0769714 0.031267 0.0663084 -0.00898908 -0.00451963 0.0571049
internal_weight=0 251.354 16.1058 1.73474 54.0537 53.1107 12.4675 11.5252 1.57205 1.26985 40.6431 4.31848 14.3711 2.91501 0.376003 0.115959 2.53901 0.214198 36.3247 5.80708 235.248 1.67539 0.30226 1.37313 0.114948 0.240306 1.1648 233.572 30.9053 0.446505
internal_count=160203 158286 9000 408 1917 1486 567 260 192 93 919 696 8592 1575 212 49 1363 60 223 64 149286 923 85 838 50 67 95 148363 19264 229
is_linear=0
shrinkage=0.01


Tree=14
num_leaves=31
num_cat=0
split_feature=14 4 10 11 10 8 14 5 15 17 29 28 10 6 5 7 11 7 4 5 9 14 26 15 20 12 5 25 4 28
split_gain=558.017 18.6109 28.0175 23.2517 13.7709 12.7607 12.8134 10.5696 24.5705 81.6971 28.769 14.4098 16.895 9.96469 12.6931 22.5975 24.8129 13.3629 9.74481 11.4758 9.60981 11.3402 8.93779 12.1992 8.50017 30.908 35.6946 25.5103 11.6987 6.29162
threshold=-2.6319626232567948 2.3292150472374855 -0.13243819936409848 0.15179150079082201 1.0989366267675054 0.14427007985261153 -0.28189633930663899 1.1220900548941153 -1.8483253139528397 0.40163665395771259 2.9950000000000006 0.49401388346578307 2.4018668203343054 -0.99114220328515434 1.3189377784449452 -0.50189668873674187 0.18956239919602605 -0.21432631842534847 2.0248634807656654 -0.0097424129377013478 -1.2784300282893348 -3.6185639790038597 -0.26234486555147446 -1.0000000180025095e-35 -1.3758540036248499 -0.52735110495894333 3.2829746664922408 -0.84863684522446248 1.4420755177901701 0.37504182142070103
decision_type=2 2 2 2 2 2 2 2 2 2 2 2 2 2 2 2 2 2 2 2 2 2 2 2 2 2 2 2 2 2
left_child=4 24 3 -3 13 6 -5 -4 9 10 -9 -10 -13 18 15 -15 -17 -18 19 -1 -19 -22 23 -20 25 26 27 -2 -29 -16
right_child=1 2 7 5 -6 -7 -8 8 11 -11 -12 12 -14 14 29 16 17 20 22 -21 21 -23 -24 -25 -26 -27 -28 28 -30 -31
leaf_value=0.023406459137548092 0.18834834230252168 -0.010048292572168736 -0.0073141253764272577 0.098533743541627319 -0.010838172198853229 -0.010165263993538126 0.03153371106655365 0.18569095703308844 -0.0055686800806830647 0.53592981797875572 -0.010019451900993036 -0.010040053066785666 0.16273972013380661 0.032794603624200752 -0.010129863225579154 -0.010183692363344885 0.15872680125234415 0.10911121277800061 0.027340251981174127 -0.010627751735812499 0.079519420974795071 -0.010047347466838925 0.025003946207850507 0.057123673507774878 -0.0090191652171654393 -0.010017676626105806 0.28936671182992885 -0.010084661787723534 0.12938157056540311 0.064124828642405915
leaf_weight=2.7822887788061017 0.10067730268929154 0.72812418011017443 11.101764540304428 0.7303019311511888 0.93409773032180865 0.22216233320068557 0.46858650108333666 0.10213932150509242 2.2462144743185486 0.036631366587243974 0.28382699051871896 0.1109127232339232 0.11555972101632506 10.04975789086893 0.80981539760250676 0.29924295470118245 0.23625757731497299 0.49936236394569267 3.6817375640384853 1.5385802506934876 0.4399895854294299 0.20827488321810939 30.684663493535481 2.1952470464166245 230.58865371707361 1.9887730361660931 0.066778278211131692 0.37655701569747213 0.07157770125195384 0.13282324862666428
leaf_count=30 27 343 6902 26 431 74 106 34 1279 12 165 42 17 68 299 99 8 13 34 666 8 64 159 30 147795 1241 21 185 17 8
internal_value=0 -0.00809737 0.00228535 0.0359026 0.0272273 0.0594471 0.0723467 -0.0028764 0.0141397 0.0846062 0.0417719 0.00209656 0.0781225 0.0278912 0.0356377 0.0384741 0.0723856 0.0902399 0.0254894 0.0112875 0.0761407 0.0507433 0.0271678 0.0384653 -0.00881626 0.00914861 0.0710687 0.0445067 0.0121914 0.000333053
internal_weight=0 249.339 16.1462 2.14917 54.4921 1.42105 1.19889 13.997 2.89528 0.422598 0.385966 2.47269 0.226472 53.558 12.6755 11.7329 1.68313 1.38388 40.8825 4.32087 1.14763 0.648264 36.5616 5.87698 233.193 2.60436 0.61559 0.548812 0.448135 0.942639
internal_count=160203 158286 9000 549 1917 206 132 8451 1549 211 199 1338 59 1486 567 260 192 93 919 696 85 72 223 64 149286 1491 250 229 202 307
is_linear=0
shrinkage=0.01


Tree=15
num_leaves=31
num_cat=0
split_feature=14 4 10 11 10 8 14 5 15 17 29 28 0 6 5 7 11 25 24 4 5 7 5 25 26 15 1 8 1 14
split_gain=545.18 18.4799 26.6754 21.2304 13.2943 11.3112 10.6153 10.2742 21.3411 53.0249 22.2835 13.1176 13.6789 9.12261 12.0333 18.9278 21.4207 10.5788 11.7846 9.36839 11.1786 8.52623 18.3891 33.7812 8.45862 11.4619 7.7236 19.1632 7.455 7.1905
threshold=-2.6319626232567948 2.3292150472374855 -0.13243819936409848 0.15179150079082201 1.0989366267675054 0.14427007985261153 -0.28189633930663899 1.1220900548941153 -1.8483253139528397 0.70713925074800366 2.9950000000000006 0.49401388346578307 138769.00000000003 -0.99114220328515434 1.3189377784449452 -0.50189668873674187 0.18956239919602605 -0.041750966567292741 -0.32427425902750845 2.0248634807656654 -0.0097424129377013478 3.033147784095735 -0.019030033162619146 -0.10941153390468498 -0.26234486555147446 -1.0000000180025095e-35 -0.76130211334747588 -0.81983558228568387 -0.37040246447441194 -0.80340363735889786
decision_type=2 2 2 2 2 2 2 2 2 2 2 2 2 2 2 2 2 2 2 2 2 2 2 2 2 2 2 2 2 2
left_child=4 21 3 -3 13 6 -5 -4 9 10 -9 -10 -13 19 15 -15 -17 18 -18 20 -1 29 26 -24 25 -21 -23 -28 -25 -2
right_child=1 2 7 5 -6 -7 -8 8 11 -11 -12 12 -14 14 -16 16 17 -19 -20 24 -22 22 23 28 -26 -27 27 -29 -30 -31
leaf_value=0.02303639981142093 -0.0044508571364001402 -0.010047821637832697 -0.0072942335232291898 0.09001777061839987 -0.010832932815673603 -0.010163690649580564 0.030431745557554471 0.14974174495874989 -0.0055438071903705114 0.37862923217255068 -0.010019469400911914 -0.010039912037581531 0.14019069039286133 0.032172994982710763 0.00032732825286048423 -0.010181982977295249 0.06322980726447576 0.059623641879259004 0.14978644234779412 0.026874885993577097 -0.010623181873973096 -0.010017264602675293 0.27540677232476368 -0.010035757441107263 0.024627504878434126 0.055545280846011076 -0.010021774066369549 0.26619889321468754 0.10326128347232279 -0.0096639095285358367
leaf_weight=2.7986303796060348 30.517857371596619 0.7209128295071453 11.021124455030074 0.79106771294027556 0.9252483332529654 0.21998565946705628 0.48063672275748093 0.12509136833250556 2.233791727921925 0.051449967082589865 0.28902711998671293 0.11148077878169704 0.13281783822458237 10.141020228620617 0.941579151432962 0.29631492390762737 0.27142201224341989 0.84488698164932408 0.37408123281784356 3.7079018336953595 1.523923124535943 1.2439725638832895 0.070057574426755309 0.17286324163433164 30.841351360199042 2.2348467223346224 0.082018445013090968 0.036202448187395819 0.087463401257990792 198.9457874300424
leaf_count=30 19264 343 6902 26 431 74 106 35 1279 8 168 41 18 68 307 99 32 45 16 34 666 779 18 66 159 30 41 18 1 129099
internal_value=0 -0.00808253 0.00225002 0.0345102 0.026752 0.0560444 0.0674974 -0.00286133 0.0137356 0.0758556 0.0382391 0.00206484 0.071636 0.0273963 0.0347437 0.0374606 0.0674719 0.0829108 0.113391 0.025096 0.0111697 -0.00880565 0.0135562 0.0804854 0.0267325 0.0376568 -0.00267665 0.0745645 0.0280293 -0.00897059
internal_weight=0 247.334 16.1774 2.2126 54.9012 1.49169 1.2717 13.9648 2.94366 0.465568 0.414118 2.47809 0.244299 53.976 12.8693 11.9277 1.78671 1.49039 0.645503 41.1067 4.32255 231.156 1.69258 0.330384 36.7841 5.94275 1.36219 0.118221 0.260327 229.464
internal_count=160203 158286 9000 549 1917 206 132 8451 1549 211 203 1338 59 1486 567 260 192 93 48 919 696 149286 923 85 223 64 838 59 67 148363
is_linear=0
shrinkage=0.01


Tree=16
num_leaves=31
num_cat=0
split_feature=14 4 10 11 10 5 15 1 27 28 12 29 28 20 12 21 21 14 6 5 7 11 4 5 2 26 15 28 28 12
split_gain=532.81 18.3537 25.4423 19.4865 12.8428 10.0057 18.875 38.2035 44.2599 12.036 11.8247 11.5132 9.8613 8.42451 28.1316 31.8545 45.9951 11.9451 8.3431 11.4349 15.8238 18.6322 9.01502 10.8932 8.63633 8.0219 10.8057 7.17016 5.90593 5.88709
threshold=-2.6319626232567948 2.3292150472374855 -0.13243819936409848 0.15179150079082201 1.0989366267675054 1.1220900548941153 -1.8483253139528397 0.037088571179507757 -0.0074329883230663989 0.49401388346578307 0.23636393911429052 30.005000000000006 0.14939889159669703 -1.3758540036248499 -0.52735110495894333 0.0093973579283024525 1.3332256396246152 -1.78449647849771 -0.99114220328515434 1.3189377784449452 -0.50189668873674187 0.18956239919602605 2.0248634807656654 -0.0097424129377013478 1.3388560216748953 -0.26234486555147446 -1.0000000180025095e-35 0.097163720816930962 0.37504182142070103 0.9209196845881692
decision_type=2 2 2 2 2 2 2 2 2 2 2 2 2 2 2 2 2 2 2 2 2 2 2 2 2 2 2 2 2 2
left_child=4 13 3 -3 18 29 7 -7 10 -8 -9 -11 27 14 15 -2 -17 -18 22 20 -20 -22 23 -1 -23 26 -24 -5 -21 -4
right_child=1 2 5 12 -6 6 9 8 -10 11 -12 -13 -14 -15 -16 16 17 -19 19 28 21 24 25 -25 -26 -27 -28 -29 -30 -31
leaf_value=0.022679588449409087 -0.010022106412215227 -0.010047355566476155 -0.0090487048247780751 0.052190882128305013 -0.010827694836295327 -0.010018017198211335 -0.0055189090094659677 -0.010049198063493262 0.34752799853754535 0.12394739620332176 0.17722465288784772 -0.010043547382299008 -0.010150840692433974 -0.0090010642042680986 -0.010017780982503935 0.26748606873862951 0.15618152505839109 -0.010176384796032232 0.031581746115043823 -0.010128690944933542 -0.010180288450527486 0.06101595793863996 0.026428359738053166 -0.010618628888782186 0.11138268906637185 0.024265305162699993 0.054089164678258576 0.11212018834373881 0.06031278231353538 0.023048473477249396
leaf_weight=2.8141544985119218 0.3030925870407376 0.7137725802604139 10.336409242590886 1.1030917726457117 0.9164828984066834 0.27647420484572682 2.2214925120351832 0.091598399681970477 0.083854344673454762 0.14881096326280374 0.053355289157480001 0.11268977471627295 0.21324965567328025 226.52170104719698 1.9562913207337249 0.14398684410843998 0.059928465634584427 0.15427581418771297 10.22712217690423 0.80210907512810159 0.29341512673999837 1.1063370502088217 3.7327170402277261 1.5094035030342663 0.49176669842563558 30.987942095380276 2.2718687779270104 0.24375734757632006 0.13976204744540155 0.60487527761142779
leaf_count=30 171 343 6523 108 431 162 1279 28 8 20 13 39 90 147795 1241 27 1 51 68 299 99 58 34 666 35 159 30 8 8 379
internal_value=0 -0.00806762 0.00221778 0.033232 0.0262949 -0.002845 0.0133723 0.0690849 0.164667 0.00203493 0.0588835 0.066206 0.053033 -0.00879495 0.0090423 0.0654282 0.129272 0.036366 0.0269206 0.0338874 0.036496 0.0630665 0.0247182 0.0110548 0.0765148 0.0263152 0.036894 0.0630371 0.000323954 -0.00727425
internal_weight=0 245.343 16.2034 2.27387 55.2931 13.9296 2.98828 0.505282 0.228808 2.48299 0.144954 0.261501 1.5601 229.139 2.61758 0.661284 0.358191 0.214204 54.3766 13.0605 12.1186 1.89152 41.3161 4.32356 1.5981 36.9925 6.00459 1.34685 0.941871 10.9413
internal_count=160203 158286 9000 549 1917 8451 1549 211 49 1338 41 59 206 149286 1491 250 79 52 1486 567 260 192 919 696 93 223 64 116 307 6902
is_linear=0
shrinkage=0.01


Tree=17
num_leaves=31
num_cat=0
split_feature=14 17 8 2 9 4 2 10 4 16 8 12 7 7 25 26 6 6 5 3 7 18 28 7 16 22 9 29 22 26
split_gain=520.935 18.2426 20.825 21.3081 31.1206 14.9717 13.8535 12.4168 12.2335 13.0964 11.1443 8.42392 12.3074 17.1891 15.7411 9.79812 7.70238 13.0463 11.3763 10.6322 8.91652 7.94006 6.16731 5.90724 18.7775 9.53054 5.76236 5.37648 7.3609 5.65735
threshold=-2.6319626232567948 1.4066430720417353 -0.34951220567750696 -0.3531814623440715 0.98452447067600868 2.641697011628485 -0.37650886615113793 1.0989366267675054 4.7925433289000958 -0.6615137891099433 0.13994363011063451 -0.31658934449968745 -0.96470089638483736 -1.2360036866804098 0.89557265930765562 -0.63111159822078189 -1.3729190119193848 -1.3485166993079496 1.3189377784449452 -1.5938304383638149 -2.6980887479516942 1.4696366143722901 0.071580666466012063 -0.74399492277731383 -0.86248130141661838 -0.80982744268550189 -2.4006398641289999 99.555000000000021 -0.98427496480665089 -0.19872947210299699
decision_type=2 2 2 2 2 2 2 2 2 2 2 2 2 2 2 2 2 2 2 2 2 2 2 2 2 2 2 2 2 2
left_child=7 8 3 4 6 -4 -3 16 -2 -10 -7 12 13 15 -14 -5 27 -18 19 23 -21 -22 -23 -19 -25 -26 -20 28 -1 -29
right_child=1 2 5 11 -6 10 -8 -9 9 -11 -12 -13 14 -15 -16 -17 17 18 26 20 21 22 -24 24 25 -27 -28 29 -30 -31
leaf_value=-0.01329914289176104 -0.008769586763797764 -0.010062461704051154 -0.010015616880731005 0.13504425051858851 0.22263755409308122 0.050051426455804487 0.11238286727697515 -0.010822459291003325 0.057119615563082544 -0.010021285021664319 -0.010034980517254577 -0.010025563117257859 -0.010029904077581697 0.19754635816022223 0.092226247988411475 -0.010041379587941043 0.12534694373468408 0.026912091399207565 0.057707885503854195 0.10504104750283708 0.036519586874629438 0.11697777957086207 0.049806565080713627 0.07740127688584561 0.10142642524456648 -0.010151478391576305 -0.010115323106758707 0.037917943822761334 0.022102124657675706 0.022393299133971842
leaf_weight=0.6014891909435417 232.59703333000652 0.21489961689803749 5.8465134290745464 0.068566426634788513 0.12878994201309979 0.81702107191085793 0.1620981540763754 0.90780049248132755 0.58465263317339122 0.57747896981891134 0.4961014169966802 0.77394621213898029 0.6668942088726908 0.096195693593472242 0.19443104777019471 0.14494555233977735 0.14688471797853964 13.645957792643461 0.14486499433405697 0.25808257609605822 2.5916357756359498 0.23560418630950142 0.3255695232655853 0.88467551954090973 0.0893190534552597 0.53560320998075661 0.92606742645148077 4.6715243480866775 24.977685838006437 4.717932532890698
leaf_count=9 152894 65 3836 1 21 62 4 431 39 311 223 409 318 9 28 66 17 63 6 3 146 20 21 9 11 191 364 40 556 30
internal_value=0 -0.00805275 0.00545004 0.0306103 0.0884326 -0.00316241 0.0425855 0.0258583 -0.00860788 0.0237564 0.0273506 0.0155738 0.0324926 0.0865563 0.0130529 0.0365509 0.0264665 0.0314529 0.0307506 0.0325786 0.04853 0.0439042 0.0780078 0.0289886 0.0477592 0.00579616 -0.00094088 0.0236453 0.0212697 0.0301173
internal_weight=0 243.37 9.6104 2.45077 0.505788 7.15964 0.376998 55.6607 233.759 1.16213 1.31312 1.94498 1.17103 0.309708 0.861325 0.213512 54.7529 19.7843 19.6374 18.5664 3.41089 3.15281 0.561174 15.1556 1.5096 0.624922 1.07093 34.9686 25.5792 9.38946
internal_count=160203 158286 5042 921 90 4121 69 1917 153244 350 285 831 422 76 346 67 1486 851 834 464 190 187 41 274 211 202 370 635 565 70
is_linear=0
shrinkage=0.01


Tree=18
num_leaves=31
num_cat=0
split_feature=14 4 10 11 10 5 15 1 27 28 12 10 7 19 6 28 14 14 4 22 0 4 26 6 9 9 9 9 11 7
split_gain=509.188 18.2201 23.3856 16.9592 11.9992 9.74057 16.9533 29.6456 27.8048 10.7644 10.7603 9.68461 8.42546 16.5672 57.0277 8.36852 7.77103 7.31708 15.9231 56.8259 65.119 20.4677 53.147 42.7712 30.6867 22.5709 23.4981 7.16034 8.75539 8.8457
threshold=-2.6319626232567948 2.3292150472374855 -0.13243819936409848 0.15179150079082201 1.0989366267675054 1.1220900548941153 -1.8483253139528397 0.037088571179507757 -0.0063350111114060491 0.49401388346578307 0.24344357070798003 2.4018668203343054 3.033147784095735 0.67985527296919313 0.76468965528637411 0.14939889159669703 -2.1847535183477897 -0.80340363735889786 0.73941265559361258 -0.98427496480665089 57084.500000000007 0.79150917216319006 -0.32808865652176894 -0.33420961973284741 -0.42799792909961848 -1.2561553088228548 -1.3313148042569598 0.85774965213300114 0.13841898995532853 -0.50189668873674187
decision_type=2 2 2 2 2 2 2 2 2 2 2 2 2 2 2 2 2 2 2 2 2 2 2 2 2 2 2 2 2 2
left_child=4 12 3 -3 27 -4 7 -7 10 -8 -9 -11 17 16 -15 -5 -14 18 -2 20 -20 22 23 -21 -24 26 -23 28 -1 -30
right_child=1 2 5 15 -6 6 9 8 -10 11 -12 -13 13 14 -16 -17 -18 -19 19 21 -22 25 24 -25 -26 -27 -28 -29 29 -31
leaf_value=-0.010102945513055843 -0.0079386071184240851 -0.010047005961141007 -0.0072310503331692042 0.056983971134867993 -0.010817226009148716 -0.010017681454973153 -0.0054706854313238519 -0.01004870422671553 0.25913526420978999 -0.010042600363573026 0.1606782759913408 0.10849872271331258 0.076037428588930422 0.26405034122884696 -0.010019234634089094 -0.01016323111412484 -0.010020428537951008 -0.009653948375810642 0.41990111376020522 0.39810467833477964 0.052926121403181717 -0.010168519890056647 0.31935077999256456 -0.010015231945058338 -0.010015220044647522 -0.0059449172368531648 0.23254746372453258 0.053974735473155414 0.024822781973633058 0.040050480596193594
leaf_weight=0.68033892288803954 24.057229479774836 0.70319439750165047 10.772475126315838 1.463149504503235 0.899200375424697 0.27134336531162295 2.1980115500045936 0.10004457295872271 0.11132783815264702 0.11686689581256349 0.058504472021013498 0.16798478574492037 0.11470401450060297 0.10943259682971973 0.24792541237547994 0.21257182129193086 1.2313510391395528 193.61825426132418 0.069723280030302592 0.073449327610433102 0.15777109540067613 0.077433889731764793 0.030361360171809793 0.039482453837990761 0.41411064902786066 4.9088185854488984 0.082261935458518454 0.9006159424316128 49.439650327782147 4.1336802756413809
leaf_count=278 15682 343 6902 116 431 162 1279 31 7 42 11 17 9 27 149 90 738 129099 14 14 49 29 20 26 273 3144 13 65 260 883
internal_value=0 -0.00803776 0.00221372 0.0311699 0.0254185 -0.00277914 0.0130796 0.0637925 0.138004 0.00202502 0.0529494 0.0598644 -0.00877399 0.0133819 0.0739082 0.0484661 -0.00268701 -0.00894283 -0.0043396 0.0104521 0.165398 0.00418661 0.0617032 0.255421 0.0124834 -0.00213871 0.114858 0.0260093 0.025545 0.0259977
internal_weight=0 241.408 16.1755 2.37892 56.0535 13.7966 3.02408 0.54122 0.269877 2.48286 0.158549 0.284852 225.232 1.70341 0.357358 1.67572 1.34606 223.529 29.9106 5.85341 0.227494 5.62592 0.557404 0.112932 0.444472 5.06851 0.159696 55.1543 54.2537 53.5733
internal_count=160203 158286 9000 549 1917 8451 1549 211 49 1338 42 59 149286 923 176 206 747 148363 19264 3582 63 3519 333 40 293 3186 42 1486 1421 1143
is_linear=0
shrinkage=0.01


Tree=19
num_leaves=31
num_cat=0
split_feature=14 4 10 11 10 7 4 21 4 24 0 29 26 22 29 22 27 28 22 7 19 26 13 2 3 14 4 22 0 19
split_gain=497.904 18.0971 22.3975 15.7459 12.1271 18.6517 17.853 17.3235 10.3135 11.2658 11.7885 9.56226 24.3795 27.33 36.567 15.1323 11.7284 8.76702 8.47934 8.27413 14.7626 46.1463 46.8809 7.8284 7.49931 7.3273 15.581 46.3968 34.2382 27.1863
threshold=-2.6319626232567948 2.3292150472374855 -0.13243819936409848 0.15179150079082201 -1.7701216471328598 -0.75576186221228536 1.3729994186392152 1.3332256396246152 3.7456862347331454 -0.26601436922715344 141540.50000000003 2.5450000000000004 -0.072989890412949537 -0.30591258811626848 0.99500000000000011 1.1725473126643002 0.072678908113383511 0.19664186401560604 1.7775659809238953 3.033147784095735 0.67985527296919313 -0.32808865652176894 -0.23373961573232047 -1.1785440516594099 -3.1977504663330847 -0.80340363735889786 0.73941265559361258 -0.98427496480665089 57084.500000000007 -2.1727429294608696
decision_type=2 2 2 2 2 2 2 2 2 2 2 2 2 2 2 2 2 2 2 2 2 2 2 2 2 2 2 2 2 2
left_child=4 19 3 -3 5 24 -7 8 -6 -10 -11 12 13 -4 16 -14 -15 -8 -13 25 -21 22 -22 -5 -1 26 -2 28 -28 -29
right_child=1 2 11 23 7 6 17 -9 9 10 -12 18 15 14 -16 -17 -18 -19 -20 20 21 -23 -24 -25 -26 -27 27 29 -30 -31
leaf_value=0.023308685284749209 -0.0079219641383011345 -0.010046547500965482 -0.010021699642041382 -0.010019203116865641 -0.0074857667889860272 -0.010174219415619868 0.073665702894359295 0.063049886717075995 -0.010091914423063087 0.018767267454450478 0.11061806210610906 -0.007369741388677846 -0.010017014836858544 -0.010028926963281197 0.28541960385746357 0.14721933806723658 0.12199966039890477 0.037675184448361668 0.08103933082707164 -0.0026727574161453127 0.37763011719456202 -0.010027049325688984 -0.010023723157044685 0.054235241168707281 0.03505774724422768 -0.0096503040471488093 0.28256714828773782 0.28780667262046367 0.049909500349143036 0.0024113719388860764
leaf_weight=42.536138747236691 23.867643430596221 0.69622911128681453 0.26053921296261251 0.21659283456392597 2.9341016075341027 0.43234031833708231 1.6470095955301078 0.52515761496033508 0.40729003632441163 0.32044643210247148 0.24777224252466112 11.324101910926398 1.6278250877512608 0.12162529025226865 0.1014809679472819 0.063598072389140614 0.15058595582377166 1.148992998874746 0.10953395033720958 1.3409351622685779 0.077359322691336274 0.25756096723489452 0.052279226598329842 1.5221655647037546 6.2281441879458717 191.76375502441078 0.10234589362516988 0.033577100373804458 0.16559282841626555 5.6207174073206252
leaf_count=200 15682 343 145 122 1368 113 33 24 76 31 21 7133 1021 56 29 38 7 16 22 747 16 132 28 84 35 129099 14 22 49 3497
internal_value=0 -0.00802318 0.00218431 0.0301399 0.0249964 0.0263504 0.0496285 0.00912309 0.00187938 0.0300476 0.0588189 -0.002763 0.0157212 0.0685953 0.123407 -0.00410488 0.0630087 0.0588757 -0.00652278 -0.00876351 0.0130329 0.0674242 0.221301 0.0462312 0.0248093 -0.00893353 -0.00431949 0.0101991 0.138779 0.00410615
internal_weight=0 239.476 16.1943 2.43499 56.4274 51.9926 3.22834 4.43477 3.90961 0.975509 0.568219 13.7593 2.32565 0.634231 0.373692 1.69142 0.272211 2.796 11.4336 223.282 1.72813 0.3872 0.129639 1.73876 48.7643 221.554 29.7899 5.92223 0.267939 5.65429
internal_count=160203 158286 9000 549 1917 397 162 1520 1496 128 52 8451 1296 237 92 1059 63 49 7155 149286 923 176 44 206 235 148363 19264 3582 63 3519
is_linear=0
shrinkage=0.01


Tree=20
num_leaves=31
num_cat=0
split_feature=14 4 10 11 10 7 4 21 4 24 0 5 15 17 29 28 20 12 19 3 10 28 28 3 11 12 29 11 7 29
split_gain=487.053 17.972 21.4816 14.6717 11.8106 16.5893 16.3295 16.2732 9.88638 10.2933 9.65507 9.32999 14.6082 24.3873 11.5418 9.42575 8.22595 23.3832 24.4226 12.3372 7.3145 7.27647 7.1677 6.95084 6.46058 5.84798 26.2208 84.4579 5.59355 14.6916
threshold=-2.6319626232567948 2.3292150472374855 -0.13243819936409848 0.15179150079082201 -1.7701216471328598 -0.75576186221228536 1.3729994186392152 1.3332256396246152 3.7456862347331454 -0.26601436922715344 141540.50000000003 1.1220900548941153 -1.8483253139528397 0.73778935763915754 2.9950000000000006 0.49401388346578307 -1.3758540036248499 -0.52735110495894333 -1.2120099697960498 -2.3102771703388196 2.4018668203343054 0.19664186401560604 0.14939889159669703 -3.1977504663330847 -0.40941590564867897 0.9209196845881692 2.0050000000000003 0.91194368220241906 3.033147784095735 635.5100000000001
decision_type=2 2 2 2 2 2 2 2 2 2 2 2 2 2 2 2 2 2 2 2 2 2 2 2 2 2 2 2 2 2
left_child=4 16 3 -3 5 23 -7 8 -6 -10 -11 25 13 14 -13 -14 17 18 -2 24 -17 -8 -5 -1 -20 -4 27 -27 -18 -30
right_child=1 2 11 22 7 6 21 -9 9 10 -12 12 15 -15 -16 20 28 -19 19 -21 -22 -23 -24 -25 -26 26 -28 -29 29 -31
leaf_value=0.023006575967501788 0.20937944712718792 -0.010046093284761852 -0.0090182081994922055 0.051532226438534667 -0.0074605056948116267 -0.010172546364582296 0.068922456194691312 0.060204640367212382 -0.010090996799623246 0.018354968485087844 0.098981743191011787 0.08757649569697018 -0.0054387618461449704 0.20655400745768662 -0.010022052778768234 -0.010042127547420111 -0.0090953168545771755 -0.010017436940407702 0.12686860939343869 -0.010017765299366913 0.089925563492653959 0.036668745756012866 -0.01017533393048458 0.034250974105154479 0.039325132446052839 -0.01001658862257627 -0.010015999562637386 0.57635519882897213 0.059887556297841565 -0.010017791237464426
leaf_weight=42.663099476019852 0.091017810394987464 0.68933252769057007 10.025078648352061 1.586137813166715 2.9146935252938415 0.42810851044487153 1.7422475384082647 0.54437617096118618 0.40327391517348588 0.32434810209088005 0.27398714586161077 0.20414003520272705 2.1827171596232797 0.092233691597357392 0.29811611399054527 0.11586162622552354 217.25175105943345 1.8942839833907772 0.14545188599731773 0.31998752930667285 0.19874157034792006 1.168622979079373 0.21358326543122519 6.3106741870287797 0.20050618529785424 0.087783177965321424 0.48463153303600848 0.034107877872884274 0.42688025685492803 1.01662675908301
leaf_count=200 20 343 6523 116 1368 113 33 24 76 31 21 35 1279 7 169 42 147023 1241 12 190 17 16 90 35 28 54 306 19 122 650
internal_value=0 -0.00800831 0.00215476 0.0291833 0.024594 0.0259259 0.0474927 0.00897455 0.00185343 0.0289571 0.0552752 -0.00274748 0.0125423 0.0570933 0.0296465 0.00193694 -0.0087527 0.00875589 0.0557357 0.0347365 0.0531096 0.0559736 0.044209 0.0244555 0.0761312 -0.00719396 0.0229586 0.154064 -0.00896495 0.0106549
internal_weight=0 237.559 16.2125 2.48905 56.7734 52.3128 3.33898 4.46068 3.9163 1.00161 0.598335 13.7234 3.09181 0.59449 0.502256 2.49732 221.347 2.65125 0.756963 0.665946 0.314603 2.91087 1.79972 48.9738 0.345958 10.6316 0.606523 0.121891 218.695 1.44351
internal_count=160203 158286 9000 549 1917 397 162 1520 1496 128 52 8451 1549 211 204 1338 149286 1491 250 230 59 49 206 235 40 6902 379 73 147795 772
is_linear=0
shrinkage=0.01


Tree=21
num_leaves=31
num_cat=0
split_feature=14 4 10 11 12 4 7 25 21 24 5 15 1 27 28 20 12 21 6 22 18 13 19 12 2 3 0 14 4 19
split_gain=476.59 17.8419 20.6263 13.7065 11.6093 18.121 14.8576 11.4739 10.4843 10.023 9.11665 13.3263 19.4943 14.506 8.84011 8.1242 21.7524 18.963 24.2499 10.607 7.88338 7.78681 9.57726 7.65636 6.76929 6.70455 6.57554 5.62984 8.16472 19.631
threshold=-2.6319626232567948 2.3292150472374855 -0.13243819936409848 0.15179150079082201 -1.4144224220658148 1.8931412611974252 -0.78214061577736538 -1.2553143619827647 3.6833645752031052 -0.31072444846591046 1.1220900548941153 -1.8483253139528397 0.037088571179507757 -0.0063350111114060491 0.49401388346578307 -1.3758540036248499 -0.52735110495894333 0.0093973579283024525 -2.2926659032181944 1.1725473126643002 1.8312785473098303 -0.81943596264706098 1.2429508677682852 0.43256265694320906 -1.1785440516594099 -3.1977504663330847 138769.00000000003 -0.80340363735889786 0.73941265559361258 -2.1727429294608696
decision_type=2 2 2 2 2 2 2 2 2 2 2 2 2 2 2 2 2 2 2 2 2 2 2 2 2 2 2 2 2 2
left_child=4 15 3 -3 6 8 25 -8 -6 -7 -4 12 -12 23 -13 16 17 -2 -19 20 -20 -9 -23 -14 -5 -1 -16 28 -17 -30
right_child=1 2 10 24 5 9 7 21 -10 -11 11 14 13 -15 26 27 -18 18 19 -21 -22 22 -24 -25 -26 -27 -28 -29 29 -31
leaf_value=0.022732410215291505 -0.010023437181015652 -0.010045643280846417 -0.007175484664414704 -0.010019549808081656 -0.010284326218184411 0.002867652042719986 0.10020225966714387 0.066772071416943593 0.098563409747803185 0.052794364819132619 -0.01001862028129127 -0.0054137674658278102 -0.010053748445550506 0.17070618637019302 -0.01004262519315389 -0.0074567148752698112 -0.010017263234090325 0.25612500670545929 -0.010147505584282941 0.13189768049785289 0.10477092717251935 0.014701148861044549 0.065253139382465394 0.11938913636051304 0.04930164254495966 0.033262809821833085 0.083307035106917698 -0.0095888096858483072 0.21558124540149098 0.004300103200222961
leaf_weight=42.522494659526274 0.30264854070264879 0.68250396871008279 10.562596289091742 0.21789660758804541 2.7272414223989467 0.63704080728348333 0.3593709314009178 0.76624618982896286 0.09145870804786671 1.0902661286527289 0.27353573648724738 2.1709255970781665 0.11242935049813241 0.16551517322659492 0.11698437330778677 23.374477304285396 1.8754678877303366 0.074974627699702978 0.19344607798848301 0.14014013786800206 0.086336322128772736 1.3359044569078817 0.52090214332565654 0.076982897706329823 1.6416395520791407 7.0483515565283588 0.21257481398060918 187.75277009070851 0.044325939612463006 5.5771689689718178
leaf_count=198 171 343 6902 122 1357 93 12 47 6 89 162 1279 34 7 41 15535 1241 3 69 6 1 67 9 8 84 39 18 128748 22 3490
internal_value=0 -0.00799335 0.00212277 0.0282828 0.0242077 0.00887666 0.0255339 0.0472111 -0.00675253 0.0343811 -0.00273423 0.0122584 0.0534233 0.102317 0.00191213 -0.00874177 0.00858542 0.0523305 0.0904624 0.0608843 0.0253145 0.039951 0.0288828 0.0425558 0.0423505 0.0242297 0.0501705 -0.00895546 -0.00485442 0.00596607
internal_weight=0 235.655 16.2336 2.54204 57.0993 4.54601 52.5533 2.98242 2.8187 1.72731 13.6915 3.12895 0.628463 0.354927 2.50048 219.422 2.67301 0.797546 0.494897 0.419923 0.279782 2.62305 1.85681 0.189412 1.85954 49.5708 0.329559 216.749 28.996 5.62149
internal_count=160203 158286 9000 549 1917 1545 372 135 1363 182 8451 1549 211 49 1338 149286 1491 250 79 76 70 123 76 42 206 237 59 147795 19047 3512
is_linear=0
shrinkage=0.01


Tree=22
num_leaves=31
num_cat=0
split_feature=14 4 10 11 10 21 7 4 4 24 29 26 26 28 22 7 29 26 3 7 0 14 4 22 15 4 26 11 9 23
split_gain=466.429 17.7214 19.8226 12.8432 11.3316 14.6767 14.6032 14.9745 9.1087 8.96851 8.926 19.7988 19.8228 26.3947 12.7549 8.02771 12.7782 23.5246 13.0274 7.64984 7.44285 7.41891 15.0976 37.1717 22.9772 18.7177 37.3654 25.0116 17.6415 14.6998
threshold=-2.6319626232567948 2.3292150472374855 -0.13243819936409848 0.15179150079082201 -1.7701216471328598 1.3332256396246152 -0.74399492277731383 1.3729994186392152 3.7456862347331454 -0.26601436922715344 2.5450000000000004 -0.072989890412949537 -0.13253327178385046 0.014565436006163552 1.1725473126643002 3.033147784095735 761.3950000000001 -0.53387079145922289 -2.8886920445463344 1.2797942453813602 141540.50000000003 -0.80340363735889786 0.73941265559361258 -0.98427496480665089 0.40029580100619305 0.79150917216319006 -0.32808865652176894 2.0796748469127206 -1.2561553088228548 -0.052511532536856295
decision_type=2 2 2 2 2 2 2 2 2 2 2 2 2 2 2 2 2 2 2 2 2 2 2 2 2 2 2 2 2 2
left_child=4 15 3 -3 6 8 -1 -8 -6 -10 11 12 19 -14 -13 21 17 -17 -19 -4 -11 22 -2 24 -24 26 -25 -28 29 -27
right_child=1 2 10 -5 5 -7 7 -9 9 20 -12 14 13 -15 -16 16 -18 18 -20 -21 -22 -23 23 25 -26 28 27 -29 -30 -31
leaf_value=0.023775244408678411 -0.0078697904738009271 -0.010045197784105035 -0.010023859860933506 0.040654306292645555 -0.007450046788428131 0.055672857954172789 -0.010173098672865963 0.053647823336992306 -0.010091351179681393 0.017170444625883401 -0.0064651666320656087 -0.010017307199275625 0.23234138535882437 0.043450618641597619 0.12346791862685949 0.185056591588178 -0.010017495474502829 0.087364681789479828 -0.010030896246155607 0.090671165810970039 0.08485939706702561 -0.009639729104642716 0.043297365778629165 0.19683780573454462 0.2157163976363598 -0.010163510792710129 -0.010015355685098324 0.26229487768238252 -0.0059276206926457834 0.16422422938688253
leaf_weight=49.594328377046622 23.292050874326382 0.67574276053346993 0.32119999069254845 1.9173843788448719 2.8880311170360069 0.57852031476795662 0.42146152001805548 2.8791087634162977 0.40449739224277437 0.33621925488114335 11.237523076706564 1.6110249522607762 0.12358200061135027 0.18429858004674315 0.074911921983584651 0.10247481230180711 1.0394004663685334 0.20342968788463622 0.42269167548511077 0.098607799620367587 0.3142956446390599 186.4564959682757 0.18551667814608652 0.14478358253836632 0.13248826481867582 0.083852800074964762 0.41389331000391294 0.036722461227327585 4.8880721625173464 0.11412387550808478
leaf_count=236 15682 343 177 206 1368 24 113 48 76 31 7155 1021 19 32 38 30 680 20 193 9 21 129099 45 40 18 31 272 21 3144 11
internal_value=0 -0.0079784 0.00209692 0.0274425 0.0238319 0.00863727 0.0251307 0.0454983 0.00173624 0.0268831 -0.00271765 0.0147303 0.0583249 0.119271 -0.0040861 -0.00873084 0.012491 0.0446012 0.0216134 0.0136282 0.0498743 -0.00890474 -0.00422616 0.00991974 0.115131 0.00403079 0.0570805 0.0121763 -0.00217949 0.0903625
internal_weight=0 233.76 16.2443 2.59313 57.4165 4.52156 52.8949 3.30057 3.94304 1.05501 13.6511 2.41363 0.727688 0.307881 1.68594 217.516 1.768 0.728596 0.626121 0.419808 0.650515 215.748 29.2915 5.99945 0.318005 5.68145 0.595399 0.450616 5.08605 0.197977
internal_count=160203 158286 9000 549 1917 1520 397 161 1496 128 8451 1296 237 51 1059 149286 923 243 213 186 52 148363 19264 3582 63 3519 333 293 3186 42
is_linear=0
shrinkage=0.01


Tree=23
num_leaves=31
num_cat=0
split_feature=14 4 10 11 12 4 7 21 25 5 15 17 24 28 20 12 21 6 25 29 13 19 2 3 12 28 0 14 4 4
split_gain=456.772 17.6044 19.0487 12.0397 11.1775 16.4876 11.9425 9.11665 8.92998 8.81229 11.6251 16.2615 8.38805 8.21414 7.97434 19.6794 15.4108 16.4222 8.14165 7.9642 6.41747 8.04796 6.09844 6.02206 5.67397 27.0858 13.41 5.65804 7.92067 15.9051
threshold=-2.6319626232567948 2.3292150472374855 -0.13243819936409848 0.15179150079082201 -1.4144224220658148 1.8931412611974252 -0.78214061577736538 3.6833645752031052 -1.2553143619827647 1.1220900548941153 -1.8483253139528397 0.73778935763915754 -0.31072444846591046 0.49401388346578307 -1.3758540036248499 -0.52735110495894333 0.0093973579283024525 -2.2926659032181944 -0.95491062013404193 2.9950000000000006 -0.81943596264706098 1.2429508677682852 -1.1785440516594099 -3.1977504663330847 0.9209196845881692 0.21855466751384603 34817.500000000007 -0.80340363735889786 0.73941265559361258 0.79150917216319006
decision_type=2 2 2 2 2 2 2 2 2 2 2 2 2 2 2 2 2 2 2 2 2 2 2 2 2 2 2 2 2 2
left_child=4 14 3 -3 6 7 23 -6 -8 24 11 19 -7 -12 15 16 -2 -18 -19 -11 -10 -22 -5 -1 -4 26 -26 28 -16 -30
right_child=1 2 9 22 5 12 8 -9 20 10 13 -13 -14 -15 27 -17 17 18 -20 -21 21 -23 -24 -25 25 -27 -28 -29 29 -31
leaf_value=0.022158830970457899 -0.010023167037412026 -0.0100447562467807 -0.0089965198558227058 -0.010020157651979856 -0.010281266118926458 0.0027647656425018093 0.087459380736948311 0.085037969274572273 0.060391061171433141 0.065753069206189993 -0.005372801074566399 0.15289198692430764 0.0477777672724942 0.047070317782316302 -0.0074193832349924247 -0.010017018450102807 0.19837310460523017 0.11085688380563642 0.023093482679555126 -0.010022468975806475 0.013971057584234697 0.058811042823848386 0.045321741445026278 0.032050619927470395 0.14103300821992282 0.30825017845904518 -0.010017134956485046 -0.0095803477397678454 0.052976228228433286 -0.0001628338920120277
leaf_weight=42.72504740441218 0.29775922943372313 0.66904826986138077 9.8145449109142611 0.2246478534070776 2.6867258484708141 0.63781244226265688 0.40508828987367484 0.10423276503570367 0.83204300038050938 0.26185199781321022 2.1517590405419464 0.12246184004470706 1.1796852847328407 0.34680199448484916 23.031258408678699 1.8441944336518634 0.095619536936283112 0.16421953740064055 0.29663872241508216 0.29492231062613428 1.3606708592269554 0.5670959495473652 1.7521261387737463 7.1902988885994992 0.066200263099745693 0.031419941573403776 0.52394304261542857 184.20538958266843 0.63382449641358007 5.0591472510714084
leaf_count=198 171 343 6523 122 1357 93 12 6 47 35 1279 7 89 59 15535 1241 3 8 68 169 67 9 84 39 37 18 324 128748 334 3178
internal_value=0 -0.00796354 0.00207031 0.0266223 0.0234811 0.00854232 0.0247781 -0.00672142 0.0436154 -0.0027013 0.0118788 0.0485621 0.0319814 0.00190634 -0.00872015 0.00836257 0.0480419 0.0791112 0.0543666 0.0256149 0.0371799 0.0271617 0.0390325 0.0235837 -0.00714093 0.022159 0.00692715 -0.00893664 -0.00480862 0.00575338
internal_weight=0 231.888 16.2597 2.64582 57.6887 4.60846 53.0802 2.79096 3.1649 13.6139 3.1778 0.679236 1.8175 2.49856 215.628 2.69843 0.854237 0.556478 0.460858 0.556774 2.75981 1.92777 1.97677 49.9153 10.4361 0.621563 0.590143 212.93 28.7242 5.69297
internal_count=160203 158286 9000 549 1917 1545 372 1363 135 8451 1549 211 182 1338 149286 1491 250 79 76 204 123 76 206 237 6902 379 361 147795 19047 3512
is_linear=0
shrinkage=0.01


Tree=24
num_leaves=31
num_cat=0
split_feature=14 4 10 11 12 4 7 5 15 1 26 28 21 7 19 26 13 24 25 0 14 4 12 19 12 24 28 10 9 11
split_gain=447.285 17.484 18.3408 11.3343 10.9194 15.7538 10.6114 8.61905 10.9958 18.3112 17.5641 9.34726 8.44509 7.93669 12.0888 26.233 17.1687 7.72628 7.61811 7.57367 7.44692 14.5871 31.4383 55.9178 118.944 27.4682 73.7614 18.4739 19.7322 16.6351
threshold=-2.6319626232567948 2.3292150472374855 -0.13243819936409848 0.15179150079082201 -1.4144224220658148 1.8931412611974252 -0.78214061577736538 1.1220900548941153 -1.4578731108874847 0.037088571179507757 0.17669469769531701 0.49401388346578307 3.6833645752031052 3.033147784095735 0.67985527296919313 -0.32808865652176894 -0.46370022644970593 -0.31072444846591046 -1.2553143619827647 142909.50000000003 -0.80340363735889786 0.73941265559361258 -0.46030907677461397 -1.0949426426285698 -0.83026116573128339 -0.88090376869431586 0.039653100927300004 -1.4003736777713949 0.98452447067600868 2.2273489743986006
decision_type=2 2 2 2 2 2 2 2 2 2 2 2 2 2 2 2 2 2 2 2 2 2 2 2 2 2 2 2 2 2
left_child=4 13 3 -3 6 12 -1 -4 9 -9 19 -10 -6 20 -15 16 -16 -7 -8 -11 21 -2 23 24 -23 26 -25 28 -24 -29
right_child=1 2 7 -5 5 17 18 8 11 10 -12 -13 -14 14 15 -17 -18 -19 -20 -21 -22 22 27 25 -26 -27 -28 29 -30 -31
leaf_value=0.023273591334438341 -0.0078365452976648774 -0.010044319135431747 -0.0071210072662692397 0.037588482314414084 -0.010279605464863267 0.002732092258357919 0.080941087972559805 -0.010018560939141411 -0.010018324856164751 -0.010053060906191139 0.15837478753648365 0.046259620251701106 0.07841576379576265 -0.0026786153459900904 0.26739880117852821 -0.01002661881006073 0.072374656968874268 0.04564198881733985 0.03590806258989971 0.077272655074109353 -0.0096324040217738299 -0.0100212331664126 -0.010054848988647516 -0.010021230365993831 0.67185908220139401 0.018831822802183557 0.56289730683168093 -0.0078545539558491501 0.1939137374818046 0.16271739800822344
leaf_weight=50.073798884637654 22.939440069021661 0.66241980693303348 10.364528624690136 2.0318394987843931 2.6604200522415336 0.6389797938754781 0.43318282323889468 0.43879111437127016 1.8406296883476891 0.17653419461566955 0.17776850424706936 0.35148289205972094 0.11186387157067645 1.3368464527884487 0.072044800268486142 0.24985865387134243 0.12087302166037261 1.2223165595205499 2.8284671184374011 0.22705673379823565 182.93752903328277 0.061127296765334904 0.092200066777877399 0.063076440826989599 0.043992171995341667 1.0238232800038529 0.034909074427559972 4.6268145905341944 0.097675763070583344 0.057890857802703866
leaf_count=237 15682 343 6902 206 1357 93 12 267 1123 58 33 55 6 747 11 132 33 89 123 13 129099 35 43 35 16 397 20 3004 2 30
internal_value=0 -0.00794843 0.00204426 0.0258773 0.0231327 0.00840787 0.024412 -0.00268531 0.0116267 0.0387478 0.075555 -0.00099473 -0.00670068 -0.00870906 0.012321 0.0576083 0.145206 0.0309111 0.0418889 0.0390756 -0.00888562 -0.00418139 0.00956066 0.0548056 0.275344 0.03414 0.194091 -0.00182746 0.0948705 -0.00574673
internal_weight=0 230.029 16.2711 2.69426 57.969 4.63358 53.3354 13.5768 3.21226 1.02015 0.581359 2.19211 2.77228 213.758 1.77962 0.442776 0.192918 1.8613 3.26165 0.403591 211.978 29.0409 6.10151 1.22693 0.105119 1.12181 0.0979855 4.87458 0.189876 4.68471
internal_count=160203 158286 9000 549 1917 1545 372 8451 1549 371 104 1178 1363 149286 923 176 44 182 135 71 148363 19264 3582 503 51 452 55 3079 45 3034
is_linear=0
shrinkage=0.01


Tree=25
num_leaves=31
num_cat=0
split_feature=14 4 10 10 21 7 11 3 29 26 12 22 0 21 4 4 20 12 13 25 24 22 14 4 15 0 0 13 5 0
split_gain=438.251 17.3682 17.6535 10.761 12.8422 10.6765 10.6717 9.02636 8.5315 17.0383 20.0994 11.1137 10.0483 11.5009 8.1015 8.10093 7.84452 17.9282 13.9829 11.267 7.569 6.84589 5.68697 7.64809 15.1068 19.8149 56.1749 133.953 172.433 131.26
threshold=-2.6319626232567948 2.3292150472374855 -0.13243819936409848 -1.7701216471328598 1.3332256396246152 -0.74399492277731383 0.15179150079082201 -3.7307632304171396 2.5450000000000004 -0.072989890412949537 -2.6878269540221695 1.1725473126643002 34817.500000000007 0.10502052638386701 3.7456862347331454 1.3729994186392152 -1.3758540036248499 -0.52735110495894333 -1.8928291114572799 -0.95491062013404193 -0.26601436922715344 1.7775659809238953 -0.80340363735889786 0.73941265559361258 -0.047612364853166993 58698.000000000007 45019.500000000007 -0.30197693332603193 0.17795083711924753 49333.500000000007
decision_type=2 2 2 2 2 2 2 2 2 2 2 2 2 2 2 2 2 2 2 2 2 2 2 2 2 2 2 2 2 2
left_child=3 16 6 5 14 -1 -3 -7 9 10 -4 -11 -12 -14 -5 -9 17 18 -2 -20 -16 -10 23 -18 -25 26 -26 28 -28 -30
right_child=1 2 8 4 -6 7 -8 15 21 11 12 -13 13 -15 20 -17 22 -19 19 -21 -22 -23 -24 24 25 -27 27 -29 29 -31
leaf_value=0.022873978338388432 0.21914829797601965 -0.010043886188174833 0.29438103277792638 -0.0074461106652714227 0.050302763028860754 0.065576969678561983 0.036195436625265393 -0.010181719819103364 -0.0072816399223509702 -0.010017542906081089 0.17209824231918344 0.10712076881780305 -0.010030266711819485 0.070515878539378851 -0.010093557102933597 0.038415849130742911 -0.0073795592731399195 -0.010016737257719373 0.08265358685067524 0.0079557154974353762 0.043625691990801817 0.064989709346424868 -0.0095717959984538536 -0.010019840729479389 0.004212454438476833 0.0015048756910372493 -0.010015098377237333 -0.010015959791754086 1.0174926568992904 0.2422921359460011
leaf_weight=50.016380081302486 0.043590183253400028 0.65585674881004097 0.032848087372258306 2.8526085163466628 0.62482643453404296 1.0393694200320172 2.0886439654277638 0.40881161845754777 10.938332537421953 1.5830214729066927 0.054904779302887952 0.085362701443955191 0.34231046075001359 0.36769023048691452 0.41153398749884218 2.1310247462242842 22.686724582570609 1.8120488155400369 0.32051522133406252 0.54574569640681181 0.72323853848502018 0.13265780743677247 180.73893966618925 3.0072711401153356 0.69293558737263017 1.7254239842295644 0.064707968616858125 0.2022604017984122 0.04866055678576231 0.039632638799957931
leaf_count=236 6 343 11 1368 24 19 206 110 7133 1021 21 38 170 35 76 32 15535 1241 27 217 52 22 128748 1935 369 993 43 130 22 20
internal_value=0 -0.00793335 0.0020197 0.0228066 0.00814959 0.0240679 0.0251456 0.0407525 -0.00266881 0.0141515 0.0521632 -0.00402417 0.0417614 0.0316824 0.00154415 0.0305936 -0.00869801 0.00816908 0.0443878 0.0355938 0.024144 -0.00641565 -0.00891746 -0.00476311 0.00550498 0.0223376 0.0566301 0.15887 0.38213 0.669524
internal_weight=0 228.21 16.2816 58.2078 4.61221 53.5956 2.7445 3.57921 13.5371 2.46614 0.797754 1.66838 0.764905 0.710001 3.98738 2.53984 211.928 2.7219 0.909851 0.866261 1.13477 11.071 209.207 28.4676 5.78089 2.77362 1.0482 0.355262 0.153001 0.0882932
internal_count=160203 158286 9000 1917 1520 397 549 161 8451 1296 237 1059 226 205 1496 142 149286 1491 250 244 128 7155 147795 19047 3512 1577 584 215 85 42
is_linear=0
shrinkage=0.01


Tree=26
num_leaves=31
num_cat=0
split_feature=14 4 10 10 21 11 7 5 15 1 26 28 3 7 29 19 26 4 4 14 4 22 18 4 26 11 9 24 26 19
split_gain=429.506 17.2527 17.0053 10.5098 12.1936 10.067 9.54464 8.32347 10.1361 15.8074 13.9532 8.52695 7.85446 7.83827 11.4555 16.3069 20.9521 7.83628 7.66771 7.4592 13.9252 26.4718 18.0666 14.6158 22.5366 23.4741 14.4054 7.09934 6.52934 28.1841
threshold=-2.6319626232567948 2.3292150472374855 -0.13243819936409848 -1.7701216471328598 1.3332256396246152 0.15179150079082201 -0.74399492277731383 1.1220900548941153 -1.4578731108874847 0.037088571179507757 0.17669469769531701 0.49401388346578307 -3.7307632304171396 3.033147784095735 761.3950000000001 0.67985527296919313 -0.4375282165652869 3.7456862347331454 1.3729994186392152 -0.80340363735889786 0.73941265559361258 -0.98427496480665089 0.12292752878845702 0.79150917216319006 -0.32808865652176894 2.2273489743986006 -1.2561553088228548 -0.26601436922715344 1.2065635902442804 0.83762120527510009
decision_type=2 2 2 2 2 2 2 2 2 2 2 2 2 2 2 2 2 2 2 2 2 2 2 2 2 2 2 2 2 2
left_child=3 13 5 6 17 -3 -1 -4 9 -9 -11 -10 -8 19 15 -15 -17 -5 -14 20 28 22 -22 24 -23 -26 -25 -19 -2 -30
right_child=1 2 7 4 -6 -7 12 8 11 10 -12 -13 18 14 -16 16 -18 27 -20 -21 21 23 -24 26 25 -27 -28 -29 29 -31
leaf_value=0.022595324141407764 -0.0082343142121384522 -0.010043457400652947 -0.0070850147443597871 -0.0074204596322770475 0.048501033317430137 0.034898493960111146 0.061776197203457797 -0.010018411270250495 -0.010018176293732339 0.035999604089009478 0.1363949182357993 0.042185248637475754 -0.010179982744404016 0.008794235140285038 -0.010017157335405714 0.24086307940576124 0.045759938025783341 -0.010092623189750865 0.037214751008798383 -0.0096248617041138369 0.21184398161055837 0.13366294992162508 0.051509809626091078 0.074129803927766982 -0.010017418461969468 0.24465066409916197 -0.0059403236545080484 0.041795185659795848 -0.010014380279916539 0.34105471549612715
leaf_weight=50.126302069285884 22.451078723650433 0.64935844799038323 10.237615080899557 2.8339385468279938 0.64147106371819962 2.1443143523065373 1.0920054414309563 0.43307564943097554 1.8172845155932003 0.42936448520049453 0.20430829026736319 0.37797018443234254 0.40481259161606375 0.52166530466638406 1.0151880525518207 0.079628744628280401 0.1782700929325074 0.40747667220421135 2.177565035643056 179.48341439734213 0.090059383888728806 0.2079830402508378 0.31997635553125292 0.23548212100286026 0.46316757472231884 0.039262479403987527 4.9026910404209048 0.74724038306158014 0.11596626602113147 0.028484429465606809
leaf_count=236 15581 343 6902 1368 24 206 19 267 1123 71 33 55 110 197 680 7 39 76 32 129099 19 40 44 42 282 11 3144 52 81 20
internal_value=0 -0.00791829 0.00199478 0.0224915 0.00803465 0.0244522 0.0237357 -0.00265266 0.011258 0.0365455 0.068369 -0.00103 0.0392927 -0.00868693 0.0121218 0.0409522 0.106 0.00152668 0.0297852 -0.00886619 -0.00414697 0.00905289 0.0867253 0.00360739 0.0461217 0.00988366 -0.00227072 0.023485 -0.00780313 0.0592134
internal_weight=0 226.426 16.2933 58.4308 4.63013 2.79367 53.8007 13.4996 3.262 1.06675 0.633673 2.19525 3.67438 210.132 1.79475 0.779564 0.257899 3.98866 2.58238 208.338 28.8542 6.25862 0.410036 5.84859 0.710413 0.50243 5.13817 1.15472 22.5955 0.144451
internal_count=160203 158286 9000 1917 1520 549 397 8451 1549 371 104 1178 161 149286 923 243 46 1496 142 148363 19264 3582 63 3519 333 293 3186 128 15682 101
is_linear=0
shrinkage=0.01


Tree=27
num_leaves=31
num_cat=0
split_feature=14 4 11 21 12 16 10 21 15 19 1 20 27 7 4 14 14 4 12 18 19 5 10 9 11 4 7 22 14 11
split_gain=421.016 17.1398 16.5677 15.2213 17.211 31.6088 10.2702 11.5963 10.2239 21.3968 20.972 24.0752 14.5224 9.96351 11.476 8.24943 7.81816 12.8816 24.4811 25.0835 46.2877 41.2058 15.2344 13.1924 10.5889 7.58441 6.80247 6.7962 6.64045 27.1981
threshold=-2.6319626232567948 2.3292150472374855 0.98352782864206911 -0.15784603650551596 0.9209196845881692 0.47667827807522106 -1.7701216471328598 1.3332256396246152 -1.2315019392468447 -1.4743519742330398 0.037088571179507757 -0.33915138142827744 -0.22476374130519497 -0.44141338156165644 1.3729994186392152 -2.3861182692039242 -0.80340363735889786 0.73941265559361258 -0.46030907677461397 0.5289388543099901 -0.29388054517661794 0.17795083711924753 -1.4003736777713949 0.98452447067600868 2.2273489743986006 3.7456862347331454 -2.0671969058627044 0.17578680498632551 -0.82253085579884144 0.96932808908724055
decision_type=2 2 2 2 2 2 2 2 2 2 2 2 2 2 2 2 2 2 2 2 2 2 2 2 2 2 2 2 2 2
left_child=6 16 8 4 -4 -6 13 25 9 10 -3 -12 -13 -1 -15 -11 17 -2 19 20 21 -19 23 -20 28 -8 -21 -27 -24 -30
right_child=1 2 3 -5 5 -7 7 -9 -10 15 11 12 -14 14 -16 -17 -18 18 22 26 -22 -23 24 -25 -26 27 -28 -29 29 -31
leaf_value=0.022286947435898312 -0.0073895209630420447 -0.010017978985476265 0.029112249696569621 -0.0031813120517735992 0.31547812604895709 0.049850584274389126 -0.0073947304405001628 0.046831094808073508 -0.00894395090796141 0.08330499618963233 0.25290957661201752 0.16243729306477994 0.035924126101139944 -0.010176105802575079 0.046368203742182035 -0.0065455271406866704 -0.0094571833447882631 -0.010017662329822537 -0.010052201225893143 0.072774081879454985 0.030621390642193706 0.28388505568430317 -0.010016030229434578 0.14512204568081535 0.1022367194384215 0.010289957333340656 -0.010025619831665493 0.068906295478309704 -0.010015325861175275 0.33054526463605932
leaf_weight=50.506866629235446 22.77433993306477 0.35686793166678432 1.7162191057577731 1.4153728845994908 0.061439004843123146 0.16539959120564163 2.8154537664959203 0.65761814708821464 9.0960586898727342 0.10610129637643773 0.076033321558497846 0.11529653053730726 0.42589622596278787 0.40632924810051863 3.0771521476563066 2.7676378107862551 179.1722097491147 0.066310015274211764 0.095805485849268623 0.11852962523698807 0.48297423392068572 0.17000710568390787 4.4677807196276254 0.12796893715858459 0.089062964427284785 0.92247834277804919 0.60913167893886566 0.25179100607056171 0.11646499077323813 0.029362584929913282
leaf_count=240 15805 224 319 745 22 39 1368 24 5848 8 30 3 101 113 44 1661 129867 40 46 1 112 38 2921 2 30 103 332 25 77 15
internal_value=0 -0.00790307 0.00197147 0.0217626 0.0399324 0.121796 0.0221873 0.00792275 -0.00316356 0.010501 0.0510042 0.086286 0.0628767 0.0234151 0.0397726 -0.00322816 -0.00867582 -0.00387274 0.00869393 0.0448574 0.0867347 0.201417 -0.00192768 0.0786866 -0.00576368 0.00150956 0.00346172 0.0228587 -0.00784856 0.058557
internal_weight=0 224.622 16.3023 3.35843 1.94306 0.226839 58.6377 4.64734 12.9439 3.84783 0.974094 0.617226 0.541193 53.9903 3.48348 2.87374 208.32 29.1477 6.3734 1.44695 0.719291 0.236317 4.92645 0.223774 4.70267 3.98972 0.727661 1.17427 4.61361 0.145828
internal_count=160203 158286 9000 1125 380 61 1917 1520 7875 2027 358 134 104 397 157 1669 149286 19419 3614 523 190 78 3091 48 3043 1496 333 128 3013 92
is_linear=0
shrinkage=0.01


Tree=28
num_leaves=31
num_cat=0
split_feature=14 4 10 12 4 11 29 26 22 24 22 14 4 12 0 0 13 10 20 11 7 11 26 29 5 3 14 15 7 19
split_gain=412.757 17.0231 16.114 10.1375 13.5557 9.21723 8.15139 14.8056 13.1835 23.0048 9.81924 7.82239 12.631 22.7589 22.0531 45.9143 18.7658 14.103 9.88521 9.50341 7.72898 7.15399 6.9976 6.90772 7.19943 6.56168 6.18717 24.2894 6.14709 15.6514
